
\data\
ngram 1=13226
ngram 2=37894
ngram 3=1161

\1-grams:
-4.486095	</s>
-99	<s>	-0.04899579
-2.707074	А	-0.2517429
-4.048526	АА	-0.04899582
-4.486095	АВ	-0.04899578
-4.486095	АГ	-0.04899578
-3.773157	АИ	-0.1119857
-4.320955	АИКитова	-0.04899579
-4.486095	АИС	-0.04899579
-3.654878	АН	-0.2376052
-3.654878	АС	-0.06899422
-4.486095	АСМ	-0.04899578
-3.081806	АСУ	-0.08400926
-4.486095	АСУНО	-0.04899579
-4.200387	АСУП	-0.04899574
-4.486095	АСУТП	-0.04899579
-4.486095	АСоловьев	-0.04899579
-4.486095	АФХ	-0.04899579
-4.486095	АФЧХ	-0.04899578
-4.486095	Аббревиатура	-0.04899578
-4.486095	Абдуллаев	-0.04899579
-4.486095	Абрахама	-0.04899578
-4.486095	Абсорбция	-0.04899578
-4.486095	Абстрагирование	-0.04899579
-4.486095	Абстрактный	-0.04899579
-4.486095	Абстракция	-0.04899578
-4.486095	Август	-0.04899579
-4.320955	Августа	-0.04899577
-4.486095	Августина	-0.04899578
-4.486095	Августинович	-0.04899579
-4.486095	Авиационное	-0.04899579
-4.320955	Авиационные	-0.1856871
-4.486095	Аврилакский	-0.04899579
-4.486095	Австрия	-0.04899579
-4.486095	Автодорожный	-0.04899579
-4.048526	Автоматизация	-0.164821
-3.654878	Автоматизированная	-0.5515248
-4.486095	Автоматизированное	-0.04899579
-4.048526	Автоматизированные	-0.1119857
-4.200387	Автоматика	-0.04899579
-4.486095	Автоматическая	-0.04899579
-4.486095	Автоматического	-0.04899578
-4.320955	Автоматическое	-0.04899576
-4.486095	Автомобили	-0.04899578
-4.486095	Автомобильные	-0.04899578
-4.486095	Автономный	-0.04899579
-4.486095	Авторам	-0.04899578
-4.486095	Автореферат	-0.04899578
-4.486095	Агентноориентированный	-0.04899579
-4.048526	Ада	-0.1993424
-4.486095	Адамов	-0.04899579
-4.320955	Адаптивные	-0.0489958
-4.486095	Адой	-0.04899579
-4.486095	Адсорбция	-0.04899578
-4.486095	Аенгара	-0.04899578
-4.486095	Азербайджана	-0.04899578
-4.320955	Азербайджане	-0.04899576
-4.486095	Азимов	-0.04899578
-4.486095	Азимова	-0.04899578
-4.486095	Азовского	-0.04899578
-4.486095	АйТи	-0.04899579
-4.320955	Айвазян	-0.1856871
-4.320955	Айвен	-0.1856871
-4.486095	Айзек	-0.04899578
-4.048526	Академии	-0.1993423
-4.200387	Академик	-0.1351904
-4.486095	Академиком	-0.04899579
-4.486095	Академические	-0.04899579
-4.486095	Академия	-0.04899579
-4.486095	Аккерман	-0.04899578
-4.486095	Аксельродом	-0.04899578
-4.486095	Аксиоматические	-0.04899579
-4.320955	Активно	-0.04899577
-4.486095	Активное	-0.04899579
-4.486095	Акустика	-0.04899578
-4.486095	Акустические	-0.04899579
-4.320955	Алан	-0.1856871
-4.048526	Алана	-0.3887176
-4.200387	Аланом	-0.2637789
-4.320955	Алгебра	-0.04899577
-4.200387	Алгебраическая	-0.1351904
-4.486095	Алгебраические	-0.04899579
-4.048526	Алгоризм	-0.0489958
-3.48555	Алгоритм	-0.08997189
-4.486095	Алгоритмами	-0.04899578
-4.486095	Алгоритми	-0.04899578
-4.486095	Алгоритмизация	-0.04899579
-4.200387	Алгоритмическая	-0.2637789
-4.486095	Алгоритмически	-0.04899579
-4.486095	Алгоритмической	-0.04899579
-3.847083	Алгоритмы	-0.04899576
-4.200387	Алгус	-0.04899578
-4.200387	Александр	-0.04899581
-4.486095	Александра	-0.04899579
-4.486095	Александрийского	-0.04899578
-4.486095	Александрович	-0.04899579
-4.486095	Александром	-0.04899578
-4.486095	Алексеевич	-0.04899579
-4.486095	Алжира	-0.04899578
-4.486095	Алле	-0.04899578
-4.486095	Аллен	-0.04899578
-4.320955	Алонзо	-0.04899579
-4.486095	АльГоретм	-0.04899579
-4.486095	АльДжазари	-0.04899579
-4.320955	АльХорезми	-0.04899577
-4.486095	Альберт	-0.04899579
-4.486095	Альбицкий	-0.04899578
-4.486095	Альтаир	-0.04899578
-4.486095	Альтернативы	-0.04899579
-4.486095	Альтшуллером	-0.04899578
-4.486095	Альфасистема	-0.04899579
-4.486095	Альфатестирование	-0.04899579
-4.486095	Альфред	-0.04899578
-4.486095	Американская	-0.04899579
-4.486095	Американский	-0.04899579
-4.486095	Американское	-0.04899579
-4.486095	Америки	-0.04899578
-4.486095	Амнон	-0.04899579
-4.486095	Амоса	-0.04899578
-4.486095	Амосов	-0.04899579
-4.486095	Амстердам	-0.04899579
-4.486095	Амстердама	-0.04899579
-3.654878	Анализ	-0.07587037
-4.200387	Анализируя	-0.04899579
-4.486095	Аналитика	-0.04899579
-4.486095	Аналитическая	-0.04899579
-4.486095	Аналитический	-0.04899579
-4.486095	Аналитической	-0.04899579
-4.486095	Аналитическую	-0.04899579
-4.486095	Аналогична	-0.04899579
-4.200387	Аналогично	-0.0489958
-4.486095	Аналогичное	-0.04899579
-4.486095	Аналогичную	-0.04899579
-4.048526	Анатолий	-0.1993424
-4.200387	Анатолия	-0.1351903
-4.486095	Английский	-0.04899578
-4.486095	Андеррайтинг	-0.04899578
-4.320955	Андрея	-0.04899578
-4.486095	Анимация	-0.04899578
-4.486095	Анри	-0.04899579
-4.486095	Антамошин	-0.04899579
-4.486095	Антикитерский	-0.04899579
-4.486095	Анхальта	-0.04899578
-4.486095	Анциферов	-0.04899579
-4.486095	Апериодическое	-0.04899579
-4.486095	Апология	-0.04899579
-4.320955	Арго	-0.04899578
-4.200387	Аргус	-0.0489958
-4.486095	Аристов	-0.04899579
-4.486095	Аристотелем	-0.04899578
-4.320955	Аристотеля	-0.04899577
-4.320955	Арифметика	-0.04899577
-4.486095	Армении	-0.04899579
-4.486095	Артиллерийской	-0.04899578
-4.486095	Артоболевский	-0.04899579
-4.486095	Арханг	-0.04899578
-4.486095	Архангельск	-0.04899578
-3.936228	Архивировано	-0.1217791
-3.847083	Архитектура	-0.1217791
-4.486095	Архитектурные	-0.04899578
-4.486095	Асимметричность	-0.04899579
-4.486095	Асимптотику	-0.04899578
-4.486095	Асимптотическая	-0.04899579
-4.486095	Ассирийского	-0.04899579
-4.486095	Ассоциацией	-0.04899578
-4.486095	Ассоциации	-0.04899578
-4.486095	Ассоциация	-0.04899578
-4.486095	Аутсорсинг	-0.04899579
-4.486095	Ахмеса	-0.04899578
-4.486095	Ахо	-0.04899578
-4.486095	Аэрокосмическая	-0.04899579
-4.486095	Аэрокосмический	-0.04899579
-4.486095	Аэронавигационная	-0.04899579
-4.486095	Ая	-0.04899579
-3.654878	Б	-0.07085875
-4.486095	ББК	-0.04899578
-3.33831	БД	-0.106098
-3.936228	БЗ	-0.04899578
-4.320955	БИНОМ	-0.1351904
-4.048526	БСЭ	-0.0489958
-4.486095	БХВПетербург	-0.04899575
-4.486095	БЭСМ	-0.04899579
-4.486095	БЯ	-0.04899578
-4.486095	Баджетт	-0.04899578
-4.486095	Баженов	-0.04899579
-3.522101	База	-0.564809
-4.486095	Базовые	-0.04899579
-3.847083	Базы	-0.1947428
-4.486095	Байесовская	-0.04899579
-4.486095	Байрона	-0.04899579
-4.486095	Баку	-0.04899578
-4.486095	Банки	-0.04899579
-4.320955	Барри	-0.04899576
-4.486095	Батоврин	-0.04899578
-4.486095	Баумана	-0.04899579
-4.320955	Бауэр	-0.04899575
-4.486095	Бахман	-0.04899578
-4.486095	Бегг	-0.04899579
-4.320955	Бегущий	-0.1856871
-4.320955	Без	-0.04899577
-4.486095	Безбумажная	-0.04899579
-4.320955	Безопасность	-0.1856871
-4.486095	Безотходная	-0.04899579
-4.486095	Бейзер	-0.04899579
-4.486095	Бейкер	-0.04899579
-4.486095	Бекман	-0.04899579
-4.486095	Белгород	-0.04899579
-4.320955	Белоруссии	-0.04899575
-4.486095	Бема	-0.04899578
-4.320955	Берг	-0.1856871
-4.486095	Берга	-0.04899579
-4.486095	Березниковский	-0.04899579
-4.486095	Беркли	-0.04899578
-4.200387	Бернулли	-0.0489958
-4.320955	Бесекерский	-0.1856871
-4.486095	Бесконечность	-0.04899578
-4.320955	Бетатестирование	-0.1856871
-4.486095	БетатестированиеПо	-0.04899578
-4.486095	Бешенков	-0.0489958
-4.486095	Библиотечка	-0.04899578
-4.486095	Билл	-0.04899578
-4.486095	Бином	-0.04899579
-4.320955	Биоинформатика	-0.04899577
-4.486095	Биологическое	-0.04899578
-4.486095	Биомеханика	-0.04899579
-4.320955	Биотехнология	-0.04899579
-4.486095	Биржа	-0.04899578
-4.486095	Биржевой	-0.04899579
-4.486095	Бишоп	-0.04899579
-4.320955	Блез	-0.1856871
-4.486095	Близнова	-0.04899578
-4.486095	Бму	-0.04899578
-4.486095	Бобов	-0.04899578
-4.486095	Бобров	-0.0489958
-4.486095	Богом	-0.04899579
-4.486095	Бодров	-0.04899578
-4.486095	Бойс	-0.04899578
-4.200387	Более	-0.04899583
-4.486095	Болотов	-0.04899579
-4.486095	Большаков	-0.04899579
-4.048526	Большая	-0.1119857
-4.486095	Большие	-0.04899579
-4.320955	Большинство	-0.04899577
-4.486095	Большое	-0.04899579
-4.048526	Большой	-0.1119857
-4.486095	Больштадт	-0.04899579
-4.486095	Борис	-0.04899578
-4.486095	Борковский	-0.04899579
-4.486095	Бородакий	-0.04899579
-4.486095	Бразды	-0.04899579
-4.486095	Браун	-0.04899579
-4.486095	Брауэр	-0.04899578
-4.486095	Бриклину	-0.04899579
-4.486095	Британские	-0.04899579
-4.486095	Британский	-0.04899578
-4.486095	Бродский	-0.04899579
-4.486095	Брокгауза	-0.04899578
-4.486095	Брука	-0.04899578
-4.486095	Брукс	-0.04899579
-4.200387	Бруно	-0.2637789
-4.486095	Буль	-0.04899579
-4.486095	Буля	-0.04899579
-4.486095	Бурбаки	-0.04899579
-4.486095	Бустинг	-0.04899579
-4.486095	Буткарев	-0.04899578
-4.486095	Бухштабер	-0.04899578
-4.486095	Был	-0.04899579
-4.486095	Была	-0.04899579
-4.200387	Было	-0.04899583
-4.486095	Быстрое	-0.04899579
-4.486095	Бытие	-0.04899579
-4.486095	Бьярне	-0.04899578
-4.320955	Бэббидж	-0.04899581
-3.936228	Бэббиджа	-0.04899577
-4.320955	Бэйна	-0.04899578
-4.486095	Бэйну	-0.04899579
-4.486095	Бэкус	-0.04899579
-2.140215	В	-0.2153698
-4.320955	ВА	-0.04899579
-4.486095	ВАК	-0.04899578
-4.486095	ВАСтеклова	-0.04899578
-4.320955	ВВ	-0.04899577
-4.320955	ВИНИТИ	-0.04899582
-4.486095	ВИСкурихина	-0.04899578
-4.320955	ВЛ	-0.04899579
-4.320955	ВМГлушков	-0.04899583
-4.320955	ВМГлушкова	-0.04899576
-4.486095	ВН	-0.04899578
-4.486095	ВПО	-0.04899578
-4.200387	ВТ	-0.1351903
-4.486095	ВУЗах	-0.04899578
-4.486095	ВУЗв	-0.04899579
-4.486095	Важнейшая	-0.04899579
-4.486095	Важнейшим	-0.04899579
-4.320955	Важно	-0.04899575
-4.486095	Важной	-0.04899579
-4.320955	Важную	-0.1856871
-4.320955	Важным	-0.04899578
-4.486095	Вайнберг	-0.04899579
-4.486095	Вайсбанд	-0.04899579
-4.486095	Вайсман	-0.04899578
-4.486095	Валах	-0.04899578
-4.486095	Вальда	-0.04899578
-4.486095	Вапник	-0.04899578
-4.486095	Вариационное	-0.04899578
-4.486095	Василий	-0.04899578
-4.486095	Васильев	-0.04899578
-4.486095	Васильевич	-0.04899579
-3.605968	Введение	-0.5972823
-4.486095	Введено	-0.04899579
-4.486095	Ввод	-0.04899579
-4.320955	Вводный	-0.1856871
-4.486095	Вегнер	-0.04899578
-4.486095	Ведение	-0.04899579
-4.486095	Вейль	-0.04899578
-4.486095	Вейсбах	-0.04899579
-4.320955	Векторная	-0.1856871
-4.486095	Векторный	-0.04899579
-4.486095	Великие	-0.04899579
-4.320955	Великобритании	-0.04899579
-4.486095	Великобритания	-0.04899579
-4.486095	Величайшие	-0.04899578
-4.486095	Вена	-0.04899578
-4.486095	Венгрии	-0.04899578
-4.486095	Вениаминович	-0.04899578
-4.486095	Вениамином	-0.04899578
-4.486095	Вены	-0.04899578
-4.486095	Верификация	-0.04899578
-4.486095	Вернор	-0.04899578
-4.486095	Вероятность	-0.04899578
-4.486095	Веселейшее	-0.04899579
-4.486095	Весовая	-0.04899578
-3.451838	Вестник	-0.04899578
-4.486095	Весьма	-0.04899579
-4.486095	Ветеран	-0.04899579
-4.486095	Вечерним	-0.04899578
-4.486095	Вещественные	-0.04899579
-4.486095	Вещественный	-0.04899579
-4.486095	Взаимодействие	-0.04899579
-4.486095	Видеоинформация	-0.04899579
-4.486095	Видеолекции	-0.04899579
-3.710003	Виды	-0.07934977
-4.486095	Визуальная	-0.04899579
-4.486095	Викиданные	-0.04899579
-4.486095	Вилижанин	-0.04899578
-4.486095	Вилла	-0.04899578
-4.048526	Вильямс	-0.2440023
-4.486095	Виндж	-0.04899578
-4.486095	Винер	-0.04899579
-4.486095	Винера	-0.04899579
-4.486095	Винтовое	-0.04899578
-4.486095	Вирта	-0.04899579
-4.486095	Виртуальном	-0.04899579
-4.486095	Виртуальный	-0.04899578
-4.486095	Витрувия	-0.04899578
-4.486095	Вихрь	-0.04899578
-4.486095	Вклад	-0.04899579
-4.486095	Включает	-0.04899579
-4.486095	Вкусовая	-0.04899579
-4.320955	Владимир	-0.04899579
-4.320955	Владимирович	-0.04899579
-4.486095	ВладленаВ	-0.04899579
-4.048526	Вместе	-0.3887177
-4.486095	Вместо	-0.04899579
-4.486095	Внедрение	-0.04899579
-4.486095	Внесение	-0.04899578
-4.486095	Внешне	-0.04899579
-4.320955	Внутри	-0.04899578
-3.710003	Во	-0.07934976
-4.486095	Военные	-0.04899579
-4.486095	Возможен	-0.04899579
-4.486095	Возможности	-0.04899579
-4.486095	Возмущающее	-0.04899579
-4.486095	Возникающие	-0.04899579
-4.320955	Возникновение	-0.04899579
-4.486095	Воксельная	-0.04899579
-4.486095	ВолгГТУ	-0.04899578
-4.486095	Волгоград	-0.04899579
-4.486095	Волкова	-0.04899578
-4.486095	Волшебный	-0.04899578
-4.486095	Вообще	-0.04899579
-4.048526	Вопрос	-0.1119857
-4.486095	Вопросноответные	-0.0489958
-3.936228	Вопросы	-0.09863557
-4.486095	Воронцов	-0.04899579
-4.486095	Воспоминаний	-0.04899579
-4.320955	Воспоминания	-0.1856871
-4.320955	Восстановление	-0.04899577
-4.486095	Востребованность	-0.04899579
-4.486095	Вот	-0.04899578
-4.320955	Впервые	-0.04899581
-4.486095	Впоследствии	-0.04899578
-4.486095	Впрочем	-0.04899579
-4.486095	Временная	-0.04899579
-4.486095	Временной	-0.04899579
-4.320955	Время	-0.04899582
-4.200387	Все	-0.04899583
-4.486095	Всеми	-0.04899578
-4.200387	Вследствие	-0.1351903
-4.486095	Встречался	-0.04899578
-4.320955	Вся	-0.04899574
-4.486095	Втор	-0.0489958
-4.320955	Вторая	-0.04899583
-4.486095	Второе	-0.04899578
-4.200387	Второй	-0.0489958
-4.486095	Вульгаты	-0.04899578
-4.486095	Входные	-0.04899579
-4.486095	Входы	-0.0489958
-4.048526	Выбор	-0.04899582
-4.486095	Выдающийся	-0.04899579
-4.486095	Вып	-0.0489958
-4.320955	Выполнение	-0.04899579
-4.320955	Выпуск	-0.04899579
-4.486095	Высказывания	-0.04899578
-4.320955	Высокие	-0.1856871
-4.486095	Высш	-0.04899578
-4.486095	Высшая	-0.04899579
-4.486095	Высшей	-0.04899579
-4.486095	Выходные	-0.04899579
-4.486095	Выходы	-0.0489958
-4.486095	Вычисление	-0.04899578
-4.200387	Вычислительная	-0.1351903
-4.048526	Вычислительные	-0.0489958
-4.320955	Вышедшая	-0.1856871
-4.320955	Вышнеградского	-0.04899577
-3.420555	Г	-0.06492017
-4.486095	ГА	-0.04899579
-4.486095	ГДР	-0.04899578
-4.486095	ГИМарчука	-0.04899578
-4.486095	ГК	-0.04899578
-4.320955	ГМ	-0.04899575
-4.486095	ГН	-0.04899578
-3.48555	ГОСТ	-0.1521197
-4.486095	ГОУ	-0.04899578
-4.486095	ГРНТИ	-0.04899579
-4.320955	Гаврилова	-0.04899574
-4.486095	Газодинамические	-0.04899578
-4.486095	Галкин	-0.04899578
-4.486095	Гаммасистема	-0.04899579
-4.320955	Гарвардской	-0.04899577
-4.486095	Гарднер	-0.04899578
-4.486095	Гарри	-0.04899578
-4.486095	Гаррисона	-0.04899578
-4.486095	ГарсиаМолина	-0.04899579
-4.486095	Гафуров	-0.04899579
-4.320955	Гделя	-0.1856871
-4.486095	Гедель	-0.04899579
-4.486095	Геделя	-0.04899578
-4.486095	Гейтинга	-0.04899578
-4.486095	Генерирование	-0.04899579
-4.486095	Генетическая	-0.04899579
-4.320955	Генетический	-0.04899574
-4.486095	Геном	-0.04899579
-4.486095	Генри	-0.04899578
-4.200387	Географическая	-0.04899581
-4.320955	Геология	-0.04899577
-4.486095	Геометрический	-0.04899579
-4.048526	Геометрия	-0.04899579
-4.486095	Георга	-0.04899578
-4.320955	Герасимов	-0.04899577
-4.486095	Герберт	-0.04899578
-4.320955	Герман	-0.04899576
-4.048526	Германия	-0.04899585
-4.486095	Германской	-0.04899578
-4.486095	Герович	-0.04899578
-4.320955	Герона	-0.04899577
-4.486095	Героном	-0.04899578
-4.486095	Гибкое	-0.04899579
-4.320955	Гибридный	-0.1856871
-4.486095	Гилбертом	-0.04899579
-4.320955	Гильберт	-0.04899576
-4.486095	Гильбертом	-0.04899579
-4.486095	Гиляревский	-0.04899579
-4.486095	Гиперион	-0.04899579
-4.486095	Гиперкомплексные	-0.04899579
-4.486095	Гиперреальные	-0.04899579
-4.486095	Гипрогор	-0.04899578
-4.486095	Гл	-0.04899579
-4.486095	Глава	-0.04899579
-4.486095	Главач	-0.04899578
-4.048526	Главная	-0.0489958
-4.486095	Главные	-0.04899579
-4.486095	Главный	-0.04899578
-4.486095	Главных	-0.04899578
-4.486095	Гленфорд	-0.04899578
-4.486095	Глик	-0.04899579
-4.486095	Глинский	-0.04899579
-4.486095	Глубокое	-0.04899579
-3.847083	Глушков	-0.2681814
-4.486095	Глушковым	-0.04899579
-4.486095	Говард	-0.04899578
-4.320955	Год	-0.1856871
-4.486095	Гооз	-0.04899576
-4.486095	Горбачву	-0.04899579
-4.486095	Горная	-0.04899579
-4.486095	Горной	-0.04899578
-4.486095	Горнонефтяной	-0.04899579
-4.486095	Горячая	-0.04899579
-4.486095	Государств	-0.04899579
-4.200387	Государственное	-0.04899577
-4.320955	Государственный	-0.04899577
-4.486095	Госэнергоиздат	-0.0489958
-4.486095	Готфрид	-0.04899579
-4.486095	Готье	-0.04899579
-4.486095	Гранат	-0.04899578
-4.486095	Графикон	-0.04899579
-4.486095	Графическая	-0.04899579
-4.486095	Графические	-0.04899579
-4.486095	Графический	-0.04899579
-4.320955	Графическое	-0.04899579
-4.486095	Гребе	-0.04899578
-4.486095	Грегори	-0.04899578
-4.320955	Грейс	-0.1856871
-4.320955	Греции	-0.04899576
-4.486095	Грофф	-0.04899579
-4.486095	Грошев	-0.04899579
-4.486095	Грубо	-0.04899579
-4.486095	Группа	-0.04899579
-4.486095	Групповая	-0.04899579
-4.486095	Грэхем	-0.04899579
-4.486095	Гттингенском	-0.04899578
-4.486095	Гудвин	-0.04899578
-4.486095	Гуманитарный	-0.04899579
-4.200387	Гурвица	-0.04899578
-4.486095	Гц	-0.04899579
-4.486095	Гэри	-0.04899578
-4.486095	Гюнтер	-0.04899579
-3.562013	Д	-0.0660803
-4.486095	ДД	-0.04899579
-4.486095	ДМК	-0.04899579
-4.486095	ДНК	-0.04899578
-4.486095	ДРАКОНсхемы	-0.04899578
-4.486095	Давид	-0.04899579
-4.486095	Даже	-0.04899579
-4.486095	ДаймлерКрайслер	-0.04899578
-4.486095	Далайлама	-0.04899579
-4.200387	Далее	-0.04899579
-4.486095	Даля	-0.04899579
-4.486095	Даниил	-0.04899579
-4.486095	Данилин	-0.04899579
-4.320955	Даниэля	-0.04899576
-4.486095	Данная	-0.04899579
-4.048526	Данные	-0.04899579
-3.936228	Данный	-0.2962524
-4.486095	Дано	-0.04899579
-4.486095	Данте	-0.04899578
-4.486095	Дарвеном	-0.04899578
-4.486095	Дартмундской	-0.04899578
-4.486095	Дартмутской	-0.04899579
-4.486095	Дартмутском	-0.04899578
-4.486095	Даталогии	-0.04899579
-4.486095	Датский	-0.04899579
-4.486095	Две	-0.04899579
-4.486095	Двойной	-0.04899578
-4.320955	Двумерная	-0.0489958
-4.486095	Двумя	-0.04899579
-4.486095	Двухсотлетнего	-0.04899579
-4.486095	Двухсотлетний	-0.04899578
-4.320955	ДеМарко	-0.1856871
-4.486095	Девятков	-0.04899578
-4.486095	Дедекинд	-0.04899578
-4.486095	Дедуктивное	-0.04899579
-4.486095	Дезинформацией	-0.04899578
-4.486095	Дезинформация	-0.04899578
-4.486095	Деи	-0.04899579
-4.486095	Дейкстра	-0.04899579
-4.486095	Действие	-0.04899579
-4.200387	Дейт	-0.04899576
-4.486095	Дейта	-0.04899579
-4.486095	Дейтом	-0.04899578
-4.486095	Декарт	-0.04899578
-4.486095	ДекларативностьС	-0.04899579
-4.320955	Дело	-0.04899574
-4.486095	Деловая	-0.04899579
-4.486095	ДемпстераШафера	-0.04899578
-4.486095	Деннинга	-0.04899579
-4.320955	День	-0.04899574
-4.486095	Департамент	-0.04899578
-4.486095	Дескрипционная	-0.04899579
-4.486095	Десять	-0.04899579
-4.486095	Детальное	-0.04899579
-4.486095	Детерминированность	-0.04899578
-4.486095	Детерминированные	-0.04899579
-4.486095	Детская	-0.04899579
-4.486095	Детской	-0.04899579
-4.486095	Децентрализованная	-0.04899579
-4.486095	Деятельность	-0.04899579
-3.710003	Дж	-0.04899579
-4.486095	Джанет	-0.04899578
-4.320955	Джеймс	-0.04899576
-4.200387	Джеймса	-0.1119857
-4.486095	Джек	-0.04899578
-4.486095	Джефри	-0.04899578
-4.486095	Джеффри	-0.04899579
-3.847083	Джон	-0.04899577
-4.320955	Джона	-0.04899577
-4.200387	Джоном	-0.1351904
-4.486095	Джону	-0.04899579
-4.320955	Джорджа	-0.04899576
-4.486095	Джоунсом	-0.04899579
-4.486095	ДиаСофт	-0.04899579
-4.486095	Диагора	-0.04899579
-4.320955	Диалектика	-0.1351904
-4.486095	Диалектическая	-0.04899579
-4.486095	Диалог	-0.04899579
-4.486095	Дизайн	-0.04899579
-4.486095	Дика	-0.04899578
-4.486095	Динамика	-0.04899578
-4.486095	Динамические	-0.0489958
-4.486095	Диплом	-0.04899578
-4.200387	Дискретная	-0.2637789
-4.486095	Дискретность	-0.04899579
-4.486095	Дискуссионные	-0.04899579
-4.486095	Диспергирование	-0.04899578
-4.320955	Дисциплина	-0.04899578
-4.486095	Дисциплины	-0.04899579
-4.320955	Дифференциальная	-0.1856871
-4.200387	Дифференциальные	-0.2637789
-3.005839	Для	-0.092063
-4.320955	До	-0.04899583
-4.486095	Добавление	-0.04899579
-4.486095	Добавлением	-0.04899579
-4.486095	Добровольная	-0.04899579
-4.486095	Добыча	-0.04899578
-4.048526	Доказательство	-0.0489958
-4.486095	Долгие	-0.04899579
-4.200387	Долгов	-0.1351904
-4.048526	Дональд	-0.1119857
-4.486095	Допускается	-0.04899578
-4.486095	Дора	-0.04899578
-4.486095	Дорот	-0.04899579
-4.486095	Дорф	-0.04899579
-4.200387	Достаточно	-0.04899583
-4.320955	Достоверность	-0.04899579
-4.320955	Достоинства	-0.04899577
-4.486095	Достоинствами	-0.04899579
-4.486095	Драгалина	-0.04899579
-4.486095	Древней	-0.04899579
-4.486095	Древние	-0.04899578
-4.486095	Дрейфусом	-0.04899579
-4.486095	Дро	-0.04899578
-4.486095	Другая	-0.04899579
-3.605968	Другие	-0.0489958
-4.486095	Другим	-0.04899579
-4.200387	Другими	-0.2637789
-4.320955	Другое	-0.04899577
-4.486095	Дружественный	-0.04899579
-4.486095	Дуранте	-0.04899578
-4.486095	Дымовое	-0.04899579
-4.486095	Дьюдени	-0.04899579
-4.486095	Дэвид	-0.04899578
-4.486095	Дэниелу	-0.04899578
-3.847083	Е	-0.04899577
-4.486095	ЕА	-0.04899579
-4.486095	ЕП	-0.04899579
-4.048526	Евклида	-0.04899579
-4.486095	Евклидом	-0.04899578
-4.200387	Европе	-0.04899579
-4.486095	Европу	-0.04899578
-4.320955	Европы	-0.0489958
-3.936228	Его	-0.04899581
-4.486095	Егоров	-0.04899579
-4.486095	Единая	-0.0489958
-4.486095	Единицы	-0.04899579
-4.320955	Единичная	-0.04899576
-4.486095	Единого	-0.04899579
-4.486095	Единственный	-0.04899579
-4.486095	Единство	-0.04899579
-4.486095	Едиториал	-0.04899578
-4.200387	Ежегодно	-0.0489958
-4.486095	Елиезер	-0.04899578
-4.486095	Енг	-0.04899578
-4.320955	Енюков	-0.1856871
-4.486095	Ершов	-0.04899579
-4.320955	Ершова	-0.04899579
-4.486095	Ершовым	-0.04899578
-3.847083	Если	-0.04899577
-4.320955	Естественная	-0.1856871
-4.486095	Естественно	-0.04899579
-4.486095	Ефрона	-0.04899575
-4.320955	Ещ	-0.04899583
-4.486095	ЖЛ	-0.04899579
-4.486095	Жак	-0.04899578
-4.486095	Жаккардовском	-0.04899578
-4.486095	Жаккаром	-0.04899579
-4.486095	Жана	-0.04899579
-4.486095	Жданов	-0.04899579
-4.200387	Жизненный	-0.2637789
-4.486095	Жилгражданстрой	-0.04899578
-4.486095	Жозефом	-0.04899578
-4.486095	Журавлев	-0.04899579
-4.200387	Журнал	-0.04899583
-4.486095	Журналы	-0.04899579
-3.936228	За	-0.0489958
-4.486095	Завершаемость	-0.04899579
-4.486095	Завершает	-0.04899579
-4.486095	Заводы	-0.04899578
-4.486095	Загоруйко	-0.04899578
-4.486095	Задач	-0.04899578
-4.200387	Задача	-0.04899581
-4.486095	Задачей	-0.04899579
-4.486095	Задачи	-0.04899578
-4.486095	Задающее	-0.04899579
-4.486095	Заключительная	-0.04899578
-4.486095	Закон	-0.04899579
-4.486095	Заменим	-0.04899579
-4.486095	Замкнутые	-0.04899579
-4.320955	Занимательная	-0.1856871
-4.486095	Западе	-0.04899579
-4.320955	Западной	-0.1856871
-4.200387	Запас	-0.04899579
-4.486095	Записках	-0.04899579
-4.486095	Записки	-0.04899579
-4.486095	Зародыш	-0.04899578
-4.486095	Зарождение	-0.04899579
-3.847083	Затем	-0.04899576
-4.320955	Зато	-0.04899581
-4.320955	Захаров	-0.0489958
-4.200387	Защита	-0.1351903
-4.486095	Защитники	-0.04899579
-4.486095	Звздного	-0.04899579
-4.486095	Звздные	-0.04899579
-4.320955	Звуковая	-0.04899575
-4.320955	Здесь	-0.04899577
-4.486095	Зейджек	-0.04899579
-4.320955	Земле	-0.04899576
-4.320955	Земли	-0.04899577
-4.486095	Землю	-0.04899579
-4.486095	Зеркало	-0.04899578
-4.486095	Знаковой	-0.04899579
-4.486095	Знаковыми	-0.04899579
-4.486095	Знаменитая	-0.04899579
-4.486095	Знаменитый	-0.04899579
-4.200387	Знание	-0.0489958
-4.486095	Знания	-0.04899578
-4.486095	Зубов	-0.04899578
-3.081806	И	-0.07699252
-4.486095	ИВ	-0.04899579
-2.724951	ИИ	-0.1381187
-4.486095	ИИисследователи	-0.04899578
-4.486095	ИИсистем	-0.04899578
-4.486095	ИИсистемы	-0.04899579
-4.486095	ИМ	-0.04899579
-4.486095	ИН	-0.04899579
-4.486095	ИНИОН	-0.04899579
-4.486095	ИНО	-0.04899579
-4.486095	ИПИ	-0.04899579
-3.19139	ИС	-0.1338231
-4.486095	ИСАУ	-0.04899579
-4.486095	ИСО	-0.04899578
-4.486095	ИСОМЭК	-0.04899578
-4.486095	ИСТОРИЯМатематическая	-0.04899579
-4.200387	ИСУ	-0.04899579
-4.486095	ИТ	-0.04899578
-4.486095	ИТМО	-0.04899578
-4.486095	ИФИ	-0.04899579
-4.486095	ИЦ	-0.04899578
-4.320955	Иан	-0.04899577
-4.486095	Иванов	-0.04899578
-4.486095	Иванович	-0.04899579
-4.486095	Ивановича	-0.04899579
-4.320955	Игорь	-0.04899577
-4.486095	Игошин	-0.04899578
-4.320955	Игра	-0.04899577
-4.320955	Игровой	-0.1856871
-4.486095	Идеализированные	-0.04899578
-4.200387	Идеи	-0.04899581
-4.486095	Идентификация	-0.04899579
-4.486095	Идея	-0.04899579
-4.320955	Иерархическая	-0.04899577
-4.486095	Иерархический	-0.04899579
-4.486095	Иеронима	-0.04899579
-3.847083	Из	-0.04899576
-4.486095	Избегания	-0.04899579
-4.486095	Известия	-0.04899579
-4.486095	Известна	-0.04899579
-4.486095	Известно	-0.04899579
-4.320955	Известные	-0.04899576
-4.486095	Известным	-0.04899579
-4.486095	Извлечение	-0.04899579
-4.486095	Издательский	-0.04899579
-4.048526	Издательство	-0.04899574
-4.200387	Издво	-0.04899583
-4.486095	Изложение	-0.04899579
-4.486095	Изменяемость	-0.04899579
-4.048526	Изначально	-0.04899578
-4.200387	Изображение	-0.04899576
-4.320955	Израиль	-0.04899575
-4.200387	Изучение	-0.04899581
-4.200387	Ийона	-0.2637789
-4.486095	Иллюстративная	-0.04899579
-4.486095	Ильенков	-0.04899579
-4.486095	Им	-0.04899579
-4.486095	Имеется	-0.04899579
-4.048526	Именно	-0.04899582
-4.486095	Имитационное	-0.04899578
-4.200387	Императорской	-0.2637789
-4.486095	Индии	-0.04899579
-4.486095	Индийский	-0.04899579
-4.486095	Индия	-0.04899578
-4.486095	Индская	-0.04899578
-4.486095	Индуктивная	-0.04899578
-4.486095	Индустрия	-0.04899578
-4.320955	Инженерия	-0.1856871
-4.486095	Инженерный	-0.04899579
-4.486095	Инженеров	-0.04899578
-4.486095	Инжиниринг	-0.04899578
-4.486095	Инновационная	-0.04899578
-4.486095	Инновационные	-0.04899579
-4.320955	Инновационный	-0.04899577
-3.936228	Иногда	-0.04899578
-4.486095	Иноземцев	-0.04899578
-4.320955	Иностранные	-0.1856871
-4.486095	Инсайдерская	-0.04899579
-3.605968	Институт	-0.09863553
-4.200387	Института	-0.1351904
-4.486095	Институте	-0.04899578
-4.486095	Институты	-0.04899579
-4.486095	Институциональная	-0.04899579
-4.486095	Инструменты	-0.04899578
-4.320955	Интеграционное	-0.1856871
-4.486095	Интеграция	-0.04899579
-4.486095	Интегрирование	-0.04899579
-4.486095	Интеллект	-0.04899579
-4.486095	Интеллектуальная	-0.04899578
-4.486095	Интеллектуальной	-0.04899578
-4.486095	Интеллектуальность	-0.04899578
-4.486095	Интеллектуальную	-0.04899578
-4.320955	Интеллектуальные	-0.0489958
-4.486095	ИнтерНет	-0.04899578
-4.486095	Интерактивная	-0.04899579
-4.486095	Интересно	-0.04899579
-4.200387	Интернета	-0.1351903
-4.486095	Интернете	-0.04899579
-4.486095	Интернетпорталы	-0.04899579
-4.486095	Интернету	-0.04899579
-4.486095	Интернетуниверситет	-0.04899579
-4.486095	Интероцепция	-0.04899578
-4.486095	Интроспекция	-0.04899578
-4.486095	Интуитивное	-0.04899579
-4.200387	Интуиционизм	-0.04899581
-3.33831	Информатика	-0.07441374
-4.486095	Информатики	-0.04899578
-3.562013	Информационная	-0.2107792
-4.320955	Информационное	-0.04899577
-3.654878	Информационные	-0.3349411
-3.936228	Информационный	-0.09863558
-4.486095	Информацию	-0.04899579
-3.605968	Информация	-0.07310683
-4.486095	Иные	-0.04899579
-4.486095	Иными	-0.04899578
-4.486095	Инь	-0.04899578
-4.486095	Иоанн	-0.04899579
-4.486095	Иоганн	-0.04899578
-4.486095	ИрГУ	-0.04899579
-4.486095	Ирака	-0.04899578
-4.486095	Иркутск	-0.04899579
-4.486095	Иррациональные	-0.04899579
-4.320955	Исаев	-0.04899579
-4.486095	Исидорович	-0.04899578
-4.486095	ИскИны	-0.04899579
-4.486095	Искусственная	-0.04899579
-4.486095	Искусственные	-0.04899579
-3.314027	Искусственный	-0.7446046
-4.200387	Искусство	-0.0489958
-4.486095	Исламский	-0.04899578
-4.486095	Испания	-0.04899578
-4.486095	Исповеди	-0.04899578
-4.486095	Исполнитель	-0.04899579
-3.936228	Использование	-0.04899579
-4.320955	Использованная	-0.1856871
-4.486095	Используя	-0.04899578
-4.486095	Испытания	-0.04899579
-3.936228	Исследования	-0.0986356
-4.486095	Исследовательские	-0.04899579
-4.486095	Исследовательский	-0.04899578
-4.486095	Историки	-0.04899578
-4.486095	Историческая	-0.04899579
-4.200387	Исторически	-0.04899581
-3.125434	История	-0.09161188
-4.486095	Источники	-0.04899579
-4.486095	Исходные	-0.04899579
-4.486095	Исходя	-0.04899579
-4.486095	Исчезновение	-0.04899579
-4.486095	Исчисление	-0.04899579
-4.486095	Исчислением	-0.04899578
-4.320955	Итак	-0.04899576
-4.486095	Италия	-0.04899579
-4.486095	Итальянским	-0.04899579
-4.320955	Их	-0.04899576
-4.486095	Ишкушштвенный	-0.04899579
-4.486095	Йордан	-0.04899579
-3.029715	К	-0.08770323
-4.486095	КИТ	-0.04899578
-4.486095	КОСИНФ	-0.04899579
-4.200387	Каждая	-0.1351904
-4.486095	Каждое	-0.04899579
-4.486095	Каждой	-0.04899579
-4.486095	Каждому	-0.04899578
-4.486095	Каждый	-0.04899579
-3.364033	Как	-0.3114534
-4.486095	Каковы	-0.04899579
-4.486095	Калбертсон	-0.04899579
-4.486095	Калифорнийском	-0.04899579
-4.486095	Калянов	-0.04899578
-4.486095	Канд	-0.04899579
-4.486095	Канемана	-0.04899578
-4.320955	Канер	-0.04899576
-4.486095	Карл	-0.04899578
-4.486095	Карнап	-0.04899578
-4.486095	Карр	-0.04899579
-4.486095	Каспаров	-0.04899579
-4.486095	Каспаровым	-0.04899578
-4.486095	Кастлер	-0.04899579
-4.486095	Категоризация	-0.04899579
-4.486095	Категория	-0.04899579
-4.320955	КатегорияПреподаватели	-0.04899576
-4.486095	Католическим	-0.04899579
-4.320955	Качество	-0.04899577
-4.486095	Квант	-0.04899579
-4.320955	Квантовая	-0.04899578
-4.486095	Квантовое	-0.04899579
-4.486095	Квантовой	-0.04899578
-4.486095	Кватернионы	-0.04899578
-4.486095	Кевин	-0.04899578
-4.486095	Кейнс	-0.04899579
-4.486095	Кейнса	-0.0489958
-4.486095	Кейнсом	-0.04899579
-4.486095	Кек	-0.04899579
-4.486095	Кем	-0.04899578
-4.486095	Кембриджского	-0.04899579
-4.486095	Кентерберийские	-0.04899579
-4.486095	Кибериада	-0.04899579
-3.847083	Кибернетика	-0.1217791
-4.486095	Кибернетику	-0.04899579
-4.048526	Киев	-0.04899582
-4.486095	Кирш	-0.04899579
-4.486095	Китаб	-0.04899579
-4.486095	Китае	-0.04899578
-4.486095	Китай	-0.04899579
-4.486095	Китайская	-0.04899578
-4.320955	Китая	-0.04899576
-3.654878	Китов	-0.1739599
-3.936228	Китова	-0.08691329
-4.486095	Китовым	-0.04899578
-4.486095	Кишинев	-0.04899578
-4.320955	Клайн	-0.1856871
-4.320955	Класс	-0.0489958
-4.320955	Классификации	-0.04899576
-3.451838	Классификация	-0.3607334
-4.486095	Классические	-0.04899579
-4.486095	Классы	-0.04899578
-4.486095	Кластеризация	-0.04899578
-4.486095	Клейн	-0.04899579
-4.486095	Клиентская	-0.04899578
-4.486095	Клиентские	-0.04899579
-4.320955	Клини	-0.04899575
-4.486095	Клиффорд	-0.04899578
-4.486095	Клод	-0.04899578
-4.320955	Клода	-0.04899579
-4.486095	Кнабе	-0.04899579
-4.200387	Книга	-0.04899583
-4.486095	Книгах	-0.04899579
-4.486095	Книге	-0.04899578
-4.320955	Книги	-0.04899578
-4.486095	Кнорринг	-0.04899578
-4.486095	Кнут	-0.04899579
-4.486095	Кобб	-0.04899578
-4.486095	Кобол	-0.04899578
-4.200387	Когаловский	-0.1351904
-4.048526	Когда	-0.04899577
-4.320955	Кодд	-0.04899574
-4.320955	Кодда	-0.04899579
-4.486095	Кодируется	-0.04899579
-4.486095	Кодрянц	-0.04899579
-4.200387	Коды	-0.04899582
-4.486095	Кокса	-0.04899579
-4.320955	Колин	-0.04899576
-4.486095	Колину	-0.04899579
-4.486095	Количественное	-0.04899578
-4.486095	Количество	-0.04899579
-4.486095	Коллежский	-0.04899578
-4.486095	Колмогоров	-0.04899578
-4.048526	Колмогорова	-0.04899578
-4.486095	Колмогоровым	-0.04899576
-4.486095	Кольмар	-0.04899578
-4.486095	Комбинаторика	-0.04899579
-4.486095	Комбинированная	-0.0489958
-4.486095	Комедии	-0.04899578
-4.486095	Комитет	-0.04899579
-4.486095	Комитета	-0.04899579
-4.486095	Комментарии	-0.04899579
-4.486095	Коммуникационная	-0.04899579
-4.486095	Коммуникационные	-0.04899579
-4.486095	Коммунист	-0.0489958
-4.486095	Коммунстрой	-0.04899578
-4.486095	Комолов	-0.04899578
-4.486095	Комолова	-0.04899579
-4.486095	Компании	-0.04899578
-4.320955	Компания	-0.04899579
-4.320955	Комплекс	-0.04899577
-4.486095	Комплексное	-0.04899578
-4.486095	Комплексные	-0.04899579
-4.486095	Комплектация	-0.04899579
-4.200387	Компьютер	-0.04899581
-3.48555	Компьютерная	-0.244412
-4.486095	Компьютерного	-0.04899579
-4.200387	Компьютерное	-0.2637789
-4.200387	Компьютерные	-0.04899579
-4.486095	Компьютерный	-0.04899579
-4.486095	Компьютерра	-0.04899578
-4.486095	Компьютеры	-0.04899579
-4.486095	Кондаков	-0.04899578
-4.486095	Конечность	-0.04899579
-4.486095	Конечным	-0.04899579
-4.486095	Конические	-0.04899579
-4.486095	Коннолли	-0.04899579
-4.486095	Кононюк	-0.04899579
-4.486095	Консалтинг	-0.04899579
-4.486095	Конспект	-0.04899579
-4.320955	Константин	-0.1856871
-4.486095	Константинова	-0.04899578
-4.200387	Конструирование	-0.04899573
-4.320955	Конструктивная	-0.1856871
-4.486095	Конструкторская	-0.04899579
-4.486095	Консультативный	-0.04899579
-4.200387	Конференции	-0.04899579
-4.486095	Конфигурационное	-0.04899579
-4.486095	Координаты	-0.04899579
-4.486095	Копенгагена	-0.04899578
-4.486095	Копнин	-0.04899579
-4.200387	Корень	-0.2637789
-4.486095	Корея	-0.04899578
-4.486095	Кори	-0.04899578
-4.486095	Коркорана	-0.04899578
-4.486095	Кормен	-0.04899579
-4.320955	Корн	-0.04899578
-4.486095	Коротаев	-0.04899579
-4.486095	Корпоративная	-0.04899579
-4.486095	Корпоративное	-0.04899578
-4.048526	Корсаков	-0.04899579
-4.486095	Коршунов	-0.04899578
-4.320955	Космическая	-0.04899577
-4.486095	Космические	-0.04899579
-4.486095	Космической	-0.04899579
-4.486095	Коуп	-0.04899579
-4.486095	Кохонена	-0.04899578
-4.486095	Кошечка	-0.04899579
-4.486095	Коэффициенты	-0.04899579
-4.486095	Кравец	-0.0489958
-4.486095	Краевой	-0.04899579
-4.486095	Красноштейн	-0.04899579
-4.486095	Краткая	-0.04899579
-4.320955	Краткий	-0.1856871
-4.486095	Кредитный	-0.04899578
-4.486095	Крестовников	-0.04899579
-4.486095	Криницкий	-0.04899578
-4.486095	Криницким	-0.04899579
-4.320955	Криницкого	-0.04899576
-4.320955	Криптография	-0.04899577
-4.320955	Крис	-0.04899576
-4.486095	Криспин	-0.04899578
-4.486095	Кристаллизация	-0.04899578
-4.486095	Кристофер	-0.04899579
-4.486095	Кристофером	-0.04899578
-4.320955	Критерии	-0.04899577
-3.562013	Критерий	-0.1682298
-3.654878	Кроме	-0.5515249
-4.486095	КругосветСтруктура	-0.04899579
-4.486095	Крэнфилда	-0.04899578
-4.486095	Ктесибием	-0.04899578
-4.486095	Куанси	-0.04899579
-4.320955	Кузнецов	-0.04899579
-4.486095	Кузнецова	-0.04899578
-4.486095	Кулибиным	-0.04899579
-4.486095	Культура	-0.04899579
-4.486095	Кунгурское	-0.04899578
-4.486095	Кураленок	-0.04899579
-4.486095	Курант	-0.04899579
-3.936228	Курс	-0.1351904
-4.486095	Курсы	-0.04899578
-4.486095	Курт	-0.04899578
-4.486095	Курта	-0.04899579
-4.486095	Куссуль	-0.04899579
-4.320955	Кутейников	-0.1856871
-4.486095	Кущенко	-0.04899579
-4.486095	Кэмбриджа	-0.04899579
-4.486095	Кэррол	-0.04899579
-3.48555	Л	-0.04899577
-3.773157	ЛПР	-0.04899577
-4.320955	Лаборатория	-0.1351903
-3.936228	Лавлейс	-0.04899577
-4.486095	Лайза	-0.04899578
-4.486095	Лань	-0.04899578
-4.320955	Лапласа	-0.04899577
-4.486095	ЛасВегас	-0.04899579
-4.486095	Латинские	-0.04899579
-4.486095	Лвочкина	-0.04899578
-4.486095	Лебедева	-0.04899579
-4.486095	Левена	-0.04899578
-4.486095	Ледокол	-0.04899578
-4.320955	Лейбниц	-0.1351904
-4.486095	Лейбница	-0.04899578
-4.486095	Лейбницем	-0.04899578
-4.486095	Лейзерсон	-0.04899578
-4.486095	Лейпциге	-0.04899579
-4.486095	Лекториум	-0.04899579
-4.320955	Лекции	-0.1856871
-4.486095	Лема	-0.04899578
-4.486095	Леманном	-0.04899579
-4.486095	Ленинградского	-0.04899579
-4.486095	Ленинграду	-0.04899578
-4.486095	Леонард	-0.04899578
-4.486095	Леонарда	-0.04899578
-4.486095	Леппера	-0.04899578
-4.486095	Лингвистическое	-0.04899579
-4.486095	Линеаризация	-0.04899578
-4.200387	Линейная	-0.2637789
-4.486095	Линейные	-0.0489958
-4.486095	Лиона	-0.04899578
-4.486095	Лисп	-0.04899579
-4.486095	Листер	-0.04899579
-4.048526	Литература	-0.04899574
-4.320955	Лицензия	-0.04899576
-4.486095	Личная	-0.04899578
-4.486095	Лобанов	-0.04899579
-4.486095	Лобов	-0.04899579
-4.486095	Лободинский	-0.04899579
-4.486095	Логика	-0.04899578
-4.486095	Логицизм	-0.04899579
-4.486095	Логическая	-0.04899578
-4.320955	Логические	-0.04899576
-4.048526	Логический	-0.1993424
-4.486095	Логическое	-0.04899578
-4.320955	Лори	-0.04899576
-4.486095	Лорьер	-0.04899578
-4.486095	Лохин	-0.04899578
-4.200387	Луи	-0.1351904
-4.486095	Луии	-0.04899579
-4.486095	Лысьвенский	-0.04899579
-4.486095	Любое	-0.04899579
-4.486095	Любой	-0.04899579
-4.486095	Любые	-0.04899579
-4.486095	Люгер	-0.04899579
-4.486095	Ляпунов	-0.04899579
-4.486095	Ляпунова	-0.04899578
-2.594555	М	-0.1925056
-4.486095	МАКС	-0.04899579
-4.486095	МАТЕМАТИКИ	-0.04899578
-4.486095	МГТУ	-0.04899578
-4.320955	МГУ	-0.04899579
-4.486095	МИГ	-0.04899579
-4.486095	МИСиС	-0.04899579
-4.486095	МИФИ	-0.04899579
-4.486095	МЛ	-0.04899578
-4.486095	ММРО	-0.04899579
-4.320955	МО	-0.1856871
-4.486095	МРП	-0.04899581
-4.486095	МФТИ	-0.04899579
-4.486095	МЦНМО	-0.04899579
-4.486095	МЭ	-0.04899579
-4.486095	МЭИ	-0.04899579
-4.486095	МЭК	-0.04899578
-4.486095	Мадрасе	-0.04899579
-4.486095	Майерс	-0.04899579
-4.486095	Майкл	-0.04899578
-4.486095	Майкрофт	-0.04899578
-4.486095	МакДжонс	-0.04899579
-4.486095	Макаров	-0.04899579
-4.486095	Макаровой	-0.04899579
-4.486095	Макиз	-0.04899579
-4.048526	Маккарти	-0.04899578
-4.486095	Макроэкономические	-0.04899579
-4.486095	Максвелла	-0.04899578
-4.320955	Малиновский	-0.1856871
-4.486095	Мало	-0.04899579
-4.486095	Малой	-0.04899579
-4.486095	Малоотходная	-0.04899579
-4.486095	Мамедов	-0.04899578
-4.486095	Манн	-0.04899578
-4.486095	Манько	-0.0489958
-4.486095	МарТ	-0.04899579
-4.486095	Марвина	-0.04899578
-4.486095	Мари	-0.04899578
-4.486095	Марк	-0.04899579
-4.486095	Марка	-0.04899579
-4.320955	Марков	-0.0489958
-3.847083	Маркова	-0.0489958
-4.486095	Марксизм	-0.04899578
-4.486095	Маркшейдерское	-0.04899579
-4.486095	Мартин	-0.04899579
-4.486095	Мартина	-0.04899579
-4.486095	Марчук	-0.04899579
-4.486095	Маслова	-0.04899578
-4.486095	Массачусетский	-0.04899579
-4.486095	Массовая	-0.04899579
-4.486095	Массовое	-0.04899579
-4.486095	Массовость	-0.04899579
-4.486095	Массообмен	-0.04899578
-4.486095	Мастер	-0.04899579
-4.486095	Матвеенко	-0.04899578
-3.654878	Математика	-0.07310684
-4.486095	Математикокартографическое	-0.04899578
-3.562013	Математическая	-0.255998
-3.773157	Математические	-0.1284607
-4.048526	Математический	-0.1856871
-4.486095	Математического	-0.04899579
-3.847083	Математическое	-0.2440022
-4.486095	Математической	-0.04899579
-4.486095	Материаловедение	-0.04899578
-4.320955	Материалы	-0.04899576
-4.486095	Материальная	-0.0489958
-4.320955	Матрица	-0.04899579
-4.486095	Матушкин	-0.04899579
-4.486095	Матч	-0.04899578
-4.048526	Машина	-0.1119857
-3.710003	Машинное	-0.5003723
-4.320955	Машинный	-0.04899577
-4.320955	Машиностроение	-0.04899577
-4.486095	Машиностроительные	-0.04899579
-4.320955	Машины	-0.04899574
-4.486095	Медведев	-0.04899578
-4.486095	Медицина	-0.04899578
-4.320955	Медицинская	-0.04899578
-4.486095	Межгосударственный	-0.04899579
-4.486095	Междисциплинарная	-0.04899578
-3.936228	Международная	-0.164821
-4.320955	Международный	-0.04899578
-4.486095	Мейн	-0.04899579
-4.486095	Мейса	-0.04899578
-4.486095	МеликГайказян	-0.04899579
-4.486095	Мелиоранский	-0.04899578
-4.486095	Мена	-0.04899578
-4.320955	Менеджмент	-0.04899579
-4.320955	Место	-0.0489958
-4.486095	Метаалгоритм	-0.04899579
-4.486095	Металловедение	-0.04899578
-4.486095	Металловеды	-0.04899578
-4.486095	Металлорежущие	-0.04899578
-4.486095	Металлургиздат	-0.04899579
-4.320955	Металлургия	-0.04899582
-4.486095	Метамоделированиеи	-0.04899579
-4.486095	Метафизика	-0.04899578
-3.710003	Метод	-0.04899583
-4.486095	Методологические	-0.04899579
-4.320955	Методология	-0.04899577
-3.710003	Методы	-0.04899578
-3.936228	Механика	-0.09863559
-4.486095	Механикотехнологический	-0.04899579
-4.486095	Механические	-0.04899579
-4.486095	Мешалкин	-0.04899579
-4.320955	Мизеса	-0.1351904
-4.486095	Микропроцессорные	-0.04899579
-4.320955	Министерства	-0.04899577
-4.320955	Министерством	-0.1856871
-4.486095	Минобрнауки	-0.04899578
-4.486095	Минприбора	-0.04899578
-4.486095	Мински	-0.04899579
-4.486095	Минтруда	-0.04899579
-4.200387	Мир	-0.09863558
-4.486095	Мирошник	-0.04899578
-4.486095	Мифический	-0.04899578
-4.486095	Михаил	-0.04899579
-4.200387	Михайлов	-0.263779
-3.710003	Михайлова	-0.04899577
-4.486095	Михайлову	-0.04899578
-4.486095	Мичиганского	-0.04899579
-4.486095	Мнение	-0.04899579
-3.522101	Многие	-0.06742278
-4.486095	Много	-0.04899578
-4.486095	Многовариантное	-0.04899579
-4.486095	Многозадачное	-0.04899579
-4.486095	Многоплановой	-0.04899579
-4.486095	Множества	-0.04899578
-4.486095	Могут	-0.04899578
-4.486095	Модели	-0.04899578
-4.486095	Моделизм	-0.04899579
-3.847083	Моделирование	-0.0489958
-4.048526	Модель	-0.04899585
-4.486095	Модули	-0.04899578
-4.486095	Моев	-0.04899578
-4.320955	Может	-0.1856871
-3.710003	Можно	-0.07934975
-4.486095	Моисеев	-0.04899577
-4.486095	Молекулярное	-0.04899578
-4.486095	Монахов	-0.04899578
-4.486095	Мониторинг	-0.04899579
-4.486095	МонтеКарло	-0.04899579
-4.486095	Морган	-0.04899578
-4.486095	Морзе	-0.04899579
-4.486095	Мориса	-0.04899578
-4.486095	Моррис	-0.04899579
-4.486095	МосПроект	-0.04899578
-4.320955	Москва	-0.04899577
-4.320955	Москве	-0.04899578
-4.486095	Московском	-0.04899578
-4.486095	МособлжилСоюз	-0.04899579
-4.486095	Мофетта	-0.04899578
-4.320955	Мочли	-0.04899579
-4.486095	Музыка	-0.04899578
-4.320955	Мультимедиа	-0.04899575
-4.486095	Мультимедийная	-0.04899578
-3.847083	Мы	-0.08995819
-4.320955	Мысленный	-0.1856871
-4.486095	Мысли	-0.04899578
-4.486095	Мюнхен	-0.04899579
-4.486095	Мюнхенского	-0.04899578
-3.110399	Н	-0.134467
-4.486095	НА	-0.04899577
-4.486095	НИВедута	-0.04899578
-4.486095	НИИ	-0.04899579
-4.486095	НИР	-0.0489958
-4.486095	НИУ	-0.04899578
-4.320955	НОД	-0.04899578
-4.486095	НОЦ	-0.04899578
-4.486095	НТР	-0.04899579
-3.228549	На	-0.1699628
-4.486095	Наверно	-0.04899579
-4.486095	Нагрузочное	-0.04899579
-4.486095	Назван	-0.04899579
-4.486095	Названия	-0.04899579
-3.773157	Наиболее	-0.04899575
-4.486095	Наибольшее	-0.04899579
-4.200387	Найквиста	-0.04899578
-4.486095	Наконец	-0.04899579
-4.048526	Наличие	-0.0489958
-4.486095	Налютин	-0.04899578
-4.486095	Наноиндустрия	-0.04899578
-4.486095	Наноматериалы	-0.04899578
-4.486095	Нанотехнология	-0.04899578
-4.486095	Направление	-0.04899578
-3.110399	Например	-0.1153495
-4.486095	Напротив	-0.04899579
-4.320955	Наряду	-0.04899574
-4.486095	НассиШнейдерманаОбычно	-0.04899579
-4.486095	Наттом	-0.04899578
-4.486095	Натуральные	-0.04899579
-4.486095	Натурное	-0.04899578
-3.605968	Наука	-0.09888601
-4.320955	Наукова	-0.1856871
-4.486095	Наумовым	-0.0489958
-4.486095	Наур	-0.0489958
-3.936228	Научная	-0.04899578
-4.200387	Научное	-0.04899582
-4.486095	Научноисследовательская	-0.04899578
-4.486095	Научнотехническая	-0.04899579
-4.486095	Научные	-0.04899579
-4.048526	Научный	-0.04899581
-4.486095	Нахождение	-0.04899578
-4.486095	Национальная	-0.04899578
-4.486095	Национальной	-0.04899579
-4.320955	Национальный	-0.1856871
-4.320955	Начала	-0.04899577
-4.486095	Началах	-0.04899579
-4.486095	Начало	-0.04899579
-4.486095	Начальный	-0.04899578
-4.486095	Начертание	-0.04899579
-4.200387	Начиная	-0.1351903
-4.486095	Нгуен	-0.04899578
-4.486095	Неарифметическому	-0.04899579
-4.486095	Негативное	-0.04899579
-4.048526	Недостатки	-0.04899583
-4.486095	Недостатком	-0.04899578
-4.486095	Независимость	-0.04899579
-4.486095	Независимые	-0.04899579
-4.486095	Независимых	-0.04899578
-4.486095	Неизбежность	-0.04899578
-4.486095	Неймана	-0.04899579
-4.486095	Нейроинформатика	-0.04899578
-4.486095	Нейронная	-0.04899579
-4.486095	Нейронные	-0.04899579
-3.654878	Некоторые	-0.04899582
-4.486095	Немаловажным	-0.04899579
-4.486095	Немецкий	-0.04899579
-4.200387	Необходимость	-0.04899582
-4.486095	Необходимый	-0.04899579
-4.486095	Неоднородная	-0.04899579
-4.486095	Неопределнность	-0.04899579
-4.486095	Неофициально	-0.04899579
-4.486095	Неприкосновенный	-0.04899579
-4.486095	Нерв	-0.04899578
-4.486095	Несколько	-0.04899579
-3.936228	Несмотря	-0.4856277
-4.486095	Несоответствие	-0.04899579
-4.486095	Нет	-0.04899578
-4.486095	Неточность	-0.04899579
-4.486095	Нефтегазовое	-0.04899578
-4.486095	Нефтегазовые	-0.04899579
-4.486095	НефтехимБургос	-0.04899579
-4.486095	Нигерии	-0.04899578
-4.320955	Нидерланды	-0.04899575
-4.486095	Ниже	-0.04899579
-4.486095	Никколо	-0.04899578
-4.486095	Никлауса	-0.04899578
-4.320955	Николаевич	-0.04899579
-4.200387	Николай	-0.04899581
-4.486095	Николая	-0.04899578
-4.486095	Николя	-0.04899578
-4.486095	Никулин	-0.04899578
-4.486095	Нильсон	-0.04899578
-4.320955	Нисходящее	-0.1856871
-3.451838	Но	-0.08386457
-4.486095	Новая	-0.04899579
-4.486095	Новик	-0.04899579
-4.320955	Новиков	-0.0489958
-4.486095	Новое	-0.04899579
-4.486095	Новосибирск	-0.04899578
-4.486095	Новости	-0.04899579
-4.486095	Новые	-0.04899579
-4.320955	Новый	-0.0489958
-4.486095	Норберт	-0.04899578
-4.486095	Норвиг	-0.04899579
-4.486095	Норма	-0.04899579
-4.486095	Нормально	-0.04899579
-4.320955	Нормальный	-0.1856871
-4.486095	Носитель	-0.04899579
-4.200387	Нумерация	-0.2637789
-4.486095	Ныне	-0.04899579
-4.486095	Ньюэлла	-0.04899578
-4.486095	Няшин	-0.04899578
-3.605968	О	-0.04899577
-4.486095	ОА	-0.04899578
-4.486095	ОАО	-0.04899579
-3.936228	ОАСУ	-0.1546903
-4.486095	ОВ	-0.04899578
-3.936228	ОГАС	-0.04899577
-4.486095	ОКР	-0.04899578
-4.320955	ОС	-0.04899581
-4.486095	ОСПо	-0.04899579
-4.048526	ОУ	-0.04899576
-3.773157	Об	-0.08386444
-4.320955	Области	-0.04899578
-4.486095	Область	-0.04899579
-4.320955	Обнаружение	-0.04899577
-4.486095	Обнаруженные	-0.04899579
-4.486095	Обобщенная	-0.04899579
-4.486095	Обобщенной	-0.04899579
-4.486095	Обобщнные	-0.04899579
-4.486095	Обозначения	-0.04899578
-4.486095	Обозрение	-0.04899578
-4.486095	Обонятельная	-0.04899579
-4.486095	Обоснование	-0.04899579
-4.486095	Обосновывая	-0.04899579
-4.486095	Обработка	-0.04899579
-4.320955	Образование	-0.1856871
-4.486095	Образовательные	-0.04899578
-4.486095	Обратная	-0.04899579
-4.486095	Обратный	-0.04899579
-4.486095	Обследование	-0.04899579
-3.710003	Обучение	-0.2286731
-4.048526	Общая	-0.0489958
-4.486095	Общегосударственной	-0.04899579
-4.486095	Общее	-0.04899579
-4.486095	Общей	-0.04899579
-4.486095	Общение	-0.04899578
-4.320955	Общие	-0.04899577
-4.486095	Общий	-0.04899578
-4.320955	Объект	-0.04899579
-4.486095	Объектам	-0.04899578
-4.486095	Объектная	-0.04899578
-4.320955	Объектноориентированные	-0.04899578
-4.486095	Объектнореляционная	-0.04899578
-4.486095	Объекты	-0.04899578
-3.847083	Обычно	-0.08995819
-4.486095	Обязательной	-0.04899578
-4.486095	Оганджанян	-0.0489958
-4.486095	Огвоздин	-0.04899578
-4.486095	Огромное	-0.04899578
-4.200387	Один	-0.1351904
-4.486095	Одна	-0.0489958
-3.228549	Однако	-0.1151691
-4.200387	Одни	-0.04899576
-4.486095	Одним	-0.04899579
-4.486095	Одно	-0.04899579
-4.320955	Одновременно	-0.04899576
-4.320955	Одной	-0.1856871
-4.486095	Одноклассовая	-0.04899579
-4.486095	Однородная	-0.04899579
-4.486095	Ожегова	-0.04899579
-4.486095	Ожидается	-0.04899579
-4.200387	Около	-0.2637789
-4.486095	Октонионы	-0.04899578
-4.486095	Омниус	-0.04899579
-3.654878	Он	-0.04899579
-3.847083	Она	-0.04899577
-4.048526	Они	-0.04899581
-4.486095	Онлайн	-0.04899578
-4.486095	Онлайнкредитор	-0.04899579
-4.486095	Онлайновые	-0.04899578
-4.200387	Оно	-0.0489958
-4.486095	Онтологию	-0.04899579
-4.486095	Оперативные	-0.04899578
-4.486095	Операторы	-0.04899579
-4.486095	Операции	-0.04899579
-4.486095	Описан	-0.04899579
-4.200387	Описание	-0.04899578
-4.486095	Описанные	-0.04899578
-4.486095	Оппель	-0.04899579
-4.486095	Определений	-0.04899579
-4.048526	Определения	-0.04899583
-4.486095	Определнную	-0.04899579
-4.486095	Оптимальное	-0.04899579
-4.486095	Опытноконструкторское	-0.04899578
-4.486095	ОрганизацииРоссийская	-0.04899579
-4.486095	Организация	-0.04899578
-4.486095	Орем	-0.04899578
-4.200387	Орлов	-0.1119857
-4.486095	Орлова	-0.04899579
-4.486095	Освта	-0.04899578
-4.486095	Основан	-0.04899579
-4.486095	Основана	-0.04899579
-4.486095	Основания	-0.04899579
-4.200387	Основная	-0.1351904
-4.200387	Основной	-0.04899579
-3.420555	Основные	-0.04899578
-4.486095	Основным	-0.04899578
-4.486095	Основными	-0.04899578
-4.320955	Основополагающие	-0.04899579
-4.320955	Основополагающими	-0.04899577
-4.486095	Основоположник	-0.04899579
-3.451838	Основы	-0.2061447
-4.320955	Особенно	-0.04899581
-4.486095	Особенностью	-0.04899579
-4.486095	Особо	-0.04899579
-4.486095	Осуществляет	-0.04899578
-4.048526	От	-0.1119857
-4.486095	Отбрасывание	-0.04899578
-4.486095	Ответ	-0.04899578
-4.486095	Отвечает	-0.04899579
-4.486095	Отдельно	-0.04899578
-4.486095	Отдельные	-0.04899579
-4.320955	Открытое	-0.0489958
-4.486095	Открытость	-0.0489958
-4.200387	Открытые	-0.1351904
-4.486095	Отличается	-0.04899579
-4.486095	Отличительной	-0.04899579
-4.486095	Отнесение	-0.04899579
-4.486095	Относительно	-0.04899578
-4.486095	Отношение	-0.04899579
-4.486095	Отныне	-0.04899579
-4.486095	Отправной	-0.04899578
-4.486095	Отраслевой	-0.04899579
-4.486095	Отстаивание	-0.04899578
-4.486095	Отступления	-0.04899579
-4.486095	Отсутствует	-0.04899579
-4.320955	Отсюда	-0.04899575
-4.486095	Отчт	-0.04899579
-4.320955	Оформление	-0.1856871
-4.320955	Охрана	-0.1856871
-4.486095	Оценка	-0.04899578
-4.320955	Очевидно	-0.04899579
-4.320955	Очень	-0.04899576
-4.486095	Ошибка	-0.04899578
-4.486095	Ошибки	-0.04899579
-3.420555	П	-0.1260258
-4.486095	ПВО	-0.04899578
-4.486095	ПГТУ	-0.04899579
-4.486095	ПИ	-0.04899578
-4.486095	ПН	-0.04899579
-3.522101	ПНИПУ	-0.04899577
-4.486095	ПНС	-0.04899579
-3.451838	ПО	-0.0838645
-4.320955	ППИ	-0.1856871
-4.320955	ПС	-0.1856871
-4.486095	ПТОО	-0.04899579
-4.486095	Павленко	-0.04899578
-4.200387	Пакеты	-0.1351904
-4.486095	Парадокс	-0.04899579
-4.486095	Параллелизм	-0.04899579
-4.486095	Параллельно	-0.04899578
-4.486095	Параллельное	-0.04899579
-4.486095	Параллельные	-0.04899578
-4.486095	Параметр	-0.04899579
-4.486095	Парахина	-0.04899578
-4.486095	Паскале	-0.04899578
-4.486095	Паскаль	-0.04899578
-4.486095	Паскаля	-0.04899579
-4.486095	Патенты	-0.04899578
-4.486095	Паулин	-0.04899578
-4.320955	Пеано	-0.04899579
-4.486095	Педагогическое	-0.04899578
-4.486095	Пелля	-0.04899578
-4.486095	Пенроуз	-0.04899579
-3.773157	Пер	-0.6317556
-3.773157	Первая	-0.04899579
-4.486095	Первое	-0.04899578
-4.486095	Первозванский	-0.04899579
-4.320955	Первой	-0.04899576
-4.486095	Первоначально	-0.04899579
-4.486095	Первую	-0.04899579
-3.773157	Первые	-0.0489958
-4.200387	Первый	-0.04899581
-4.486095	Первым	-0.04899579
-4.200387	Первыми	-0.0489958
-4.320955	Пердью	-0.1856871
-4.486095	Перевести	-0.04899579
-4.486095	Переводчик	-0.04899579
-4.200387	Передаточная	-0.2637789
-4.200387	Передача	-0.04899581
-4.486095	Перейдем	-0.04899578
-4.320955	Перельман	-0.04899577
-4.486095	Переход	-0.04899578
-4.320955	Переходная	-0.04899578
-4.486095	Перечислять	-0.04899579
-4.200387	Период	-0.0489958
-4.486095	ПермГТУ	-0.04899579
-3.773157	Пермский	-0.1217791
-4.320955	Пермского	-0.04899576
-4.486095	Пермском	-0.04899578
-4.486095	Персидский	-0.04899579
-4.486095	Персональная	-0.04899579
-4.486095	Персональные	-0.04899579
-4.486095	Перспективные	-0.04899579
-4.486095	Петербургского	-0.04899578
-4.486095	Петри	-0.04899578
-4.486095	Петров	-0.04899578
-4.320955	Петрович	-0.04899577
-4.486095	Петровича	-0.04899579
-4.486095	Петрунин	-0.04899579
-4.486095	Петрушенко	-0.04899578
-4.486095	Печатные	-0.04899579
-4.486095	Пирс	-0.04899579
-4.486095	Пирса	-0.04899578
-4.486095	Писаревский	-0.04899579
-4.486095	Писателифантасты	-0.04899579
-4.486095	Письмо	-0.04899579
-4.048526	Питер	-0.08995818
-4.320955	Питера	-0.1856871
-4.320955	Планирование	-0.04899577
-4.486095	Плановые	-0.04899579
-4.486095	Платона	-0.04899579
-4.486095	Платоном	-0.04899578
-4.320955	Платформа	-0.04899577
-4.486095	Плеханова	-0.04899577
-4.486095	Пневматика	-0.04899578
-3.157161	По	-0.1045184
-4.486095	Повсеместная	-0.04899578
-4.200387	Повышение	-0.04899579
-3.773157	Под	-0.3109489
-4.200387	Подготовка	-0.04899578
-4.486095	Поддерживались	-0.04899579
-4.486095	Поддержка	-0.04899579
-4.486095	Подкомитет	-0.04899579
-4.320955	Подобно	-0.04899576
-4.320955	Подобные	-0.04899575
-4.486095	Подобным	-0.04899578
-4.486095	Подтверждающее	-0.04899579
-4.200387	Подходы	-0.1351903
-4.320955	Позднее	-0.04899577
-4.486095	Позже	-0.04899579
-4.486095	Познавательные	-0.04899578
-4.200387	Поиск	-0.04899581
-4.486095	Показателен	-0.04899579
-4.486095	Показатель	-0.04899579
-4.320955	Покрытие	-0.1856871
-4.320955	Пол	-0.04899578
-4.486095	Полином	-0.04899579
-4.200387	Полисемия	-0.1351903
-4.486095	Политех	-0.04899578
-4.486095	Политехническим	-0.04899579
-4.320955	Политиздат	-0.04899575
-4.486095	Полная	-0.04899579
-4.486095	Полное	-0.04899578
-4.320955	Полный	-0.04899578
-4.486095	Положение	-0.04899578
-4.486095	Полуавтоматизированное	-0.04899579
-4.320955	Получение	-0.04899577
-4.486095	Полученные	-0.04899579
-4.486095	Пользовался	-0.04899579
-4.486095	Пользователь	-0.04899579
-4.486095	Пользовательские	-0.04899579
-4.486095	Пользуясь	-0.04899578
-4.486095	Польше	-0.04899578
-4.486095	Поляков	-0.04899578
-4.200387	Помимо	-0.0489958
-4.486095	Помоему	-0.04899579
-4.486095	Помощь	-0.04899579
-4.486095	Поначалу	-0.04899579
-4.486095	Понижение	-0.04899579
-4.486095	Понимание	-0.04899579
-3.773157	Понятие	-0.08386453
-4.486095	Понятность	-0.04899579
-4.320955	Попов	-0.1856871
-4.486095	Популяризаторы	-0.04899579
-4.320955	Попытки	-0.04899575
-4.320955	Портал	-0.0489958
-4.486095	Португалия	-0.04899579
-3.847083	Поскольку	-0.04899578
-4.200387	После	-0.0489958
-4.486095	Послегарантийное	-0.04899578
-4.486095	Последние	-0.04899579
-4.486095	Последний	-0.04899579
-4.320955	Последняя	-0.04899578
-4.486095	Последовательное	-0.04899579
-4.486095	Последовательной	-0.04899578
-4.486095	Последовательность	-0.04899579
-4.486095	Поспелова	-0.04899579
-4.486095	Поспеловым	-0.0489958
-4.486095	Пост	-0.04899578
-4.200387	Поста	-0.04899582
-4.486095	Постановления	-0.04899578
-4.320955	Постепенно	-0.04899581
-4.320955	Построение	-0.04899577
-4.486095	Поступок	-0.04899579
-4.486095	Потенциал	-0.04899579
-4.486095	Поток	-0.04899579
-4.486095	Похожий	-0.04899578
-4.486095	Почему	-0.04899579
-4.320955	Почти	-0.04899579
-3.605968	Поэтому	-0.04899584
-4.486095	Появилась	-0.04899579
-4.200387	Появление	-0.04899579
-4.486095	Поясняя	-0.04899579
-4.486095	Правда	-0.04899579
-4.486095	Правила	-0.04899579
-4.320955	Правильное	-0.1856871
-4.486095	Правительства	-0.04899579
-4.200387	Правительством	-0.04899581
-4.486095	Право	-0.04899578
-4.486095	Практикум	-0.04899579
-4.320955	Практическая	-0.04899577
-4.486095	Практически	-0.04899579
-4.320955	Практические	-0.04899578
-4.486095	Превосходство	-0.04899578
-4.486095	Превращение	-0.04899579
-4.486095	Предлагается	-0.04899578
-4.486095	Предложения	-0.04899578
-4.486095	Предмет	-0.04899579
-4.486095	Предметная	-0.04899578
-4.486095	Предметноориентированные	-0.04899578
-4.320955	Предметом	-0.04899576
-4.320955	Предоставление	-0.04899577
-4.048526	Предполагается	-0.3887176
-4.486095	Предполагалось	-0.04899579
-4.486095	Предпосылки	-0.04899579
-4.048526	Представление	-0.04899576
-4.486095	Предыдущая	-0.04899579
-4.486095	Предыстория	-0.04899578
-4.320955	Президент	-0.04899579
-4.486095	Президенте	-0.04899579
-4.320955	Преимущества	-0.04899575
-4.486095	Преимущественно	-0.04899579
-4.486095	Прекрасный	-0.04899579
-4.486095	Преобразования	-0.04899579
-4.486095	Преспером	-0.04899578
-4.320955	Пресс	-0.04899581
-3.05498	При	-0.3261604
-4.486095	Приблизительно	-0.04899579
-4.486095	Придуман	-0.04899579
-4.486095	Признаковое	-0.04899578
-3.710003	Прикладная	-0.1534713
-4.320955	Прикладное	-0.1856871
-4.486095	Прикладные	-0.04899579
-4.320955	Приложение	-0.04899576
-4.320955	Применение	-0.04899575
-4.486095	Применительно	-0.04899578
-4.486095	Применяя	-0.04899578
-4.486095	Пример	-0.04899578
-4.486095	Примером	-0.04899579
-4.048526	Примеры	-0.04899579
-3.269189	Примечания	-0.6873108
-4.486095	Примочное	-0.04899579
-4.486095	Принстонского	-0.04899579
-4.200387	Принципы	-0.04899576
-4.320955	Принятие	-0.1856871
-4.320955	Принято	-0.1856871
-4.200387	Природа	-0.1351904
-4.486095	Причм	-0.04899578
-4.200387	Про	-0.04899581
-4.200387	Проблема	-0.04899579
-4.486095	Проблематика	-0.04899579
-4.200387	Проблемы	-0.0489958
-3.936228	Проведение	-0.04899579
-4.320955	Проверено	-0.04899579
-4.200387	Прогнозирование	-0.04899581
-4.486095	Программа	-0.04899579
-3.936228	Программирование	-0.04899578
-4.486095	Программируя	-0.04899579
-4.048526	Программная	-0.1993424
-4.486095	Программноаппаратный	-0.04899579
-3.936228	Программное	-0.4856277
-4.486095	Программные	-0.04899579
-4.200387	Программы	-0.0489958
-4.486095	Прогресс	-0.04899579
-4.200387	Проект	-0.04899583
-4.486095	ПроектИнформационные	-0.04899578
-3.605968	Проектирование	-0.04899575
-4.486095	Проектировать	-0.04899579
-4.486095	Проектные	-0.04899578
-4.320955	Проекты	-0.04899577
-4.486095	Производственные	-0.04899579
-4.486095	Производство	-0.04899579
-4.486095	Происхождение	-0.04899578
-4.200387	Пролог	-0.04899576
-4.486095	Промышленность	-0.04899578
-4.486095	Проприетарное	-0.04899579
-4.320955	Проректор	-0.1856871
-4.486095	Просвещение	-0.04899579
-4.486095	Простая	-0.04899579
-4.486095	Простейшие	-0.04899578
-4.486095	Простейшим	-0.04899579
-4.486095	Пространственная	-0.04899579
-4.486095	Пространственновременная	-0.04899579
-4.486095	Пространственные	-0.04899579
-4.486095	Пространство	-0.04899579
-4.320955	Простые	-0.04899575
-4.486095	Профессиональная	-0.04899578
-4.486095	Профессия	-0.04899577
-4.486095	Профессор	-0.04899578
-4.486095	Процедурные	-0.04899579
-3.773157	Процесс	-0.08386444
-4.486095	Процессоры	-0.04899579
-4.320955	Процессы	-0.04899575
-4.486095	Процитированное	-0.04899579
-4.486095	Пс	-0.04899579
-4.486095	Псевдографика	-0.04899579
-4.486095	Психологическое	-0.04899578
-4.486095	Психология	-0.04899578
-4.486095	Птицына	-0.04899579
-4.486095	Птолемеем	-0.04899578
-4.486095	Пуанкаре	-0.04899579
-4.486095	Пурбаха	-0.04899578
-4.486095	Пусконаладочные	-0.04899578
-4.200387	Пусть	-0.0489958
-4.486095	Путей	-0.04899578
-4.486095	Пути	-0.04899579
-4.486095	Путь	-0.04899578
-4.486095	Пушкиным	-0.04899578
-4.486095	Пьер	-0.04899578
-4.486095	Пэт	-0.04899578
-4.486095	Пятидесятирублируй	-0.04899579
-4.486095	Пятьсот	-0.04899578
-3.391375	Р	-0.0489958
-4.486095	РА	-0.04899578
-4.486095	РАМ	-0.04899579
-4.486095	РАМмашина	-0.04899578
-3.936228	РАН	-0.04899579
-4.486095	РАНАлгоритм	-0.04899578
-4.486095	РАНКритикаАСоловьев	-0.04899578
-4.486095	РБ	-0.04899578
-4.486095	РВ	-0.04899579
-4.486095	РДНТП	-0.04899579
-4.486095	РЕ	-0.04899578
-4.320955	РИНЦ	-0.0489958
-4.486095	РП	-0.04899579
-4.486095	РСФСР	-0.04899579
-4.200387	РФ	-0.04899584
-4.486095	РЭА	-0.04899578
-4.486095	РЭУ	-0.04899578
-4.200387	Работа	-0.04899581
-4.320955	Работы	-0.04899577
-4.200387	Рабочая	-0.1351904
-4.486095	Рабочие	-0.04899578
-4.486095	Радио	-0.04899578
-4.486095	Радиоэлектронику	-0.04899579
-4.486095	Разборов	-0.04899579
-4.200387	Развитие	-0.1351903
-4.486095	Развлечение	-0.04899578
-4.486095	Раздел	-0.04899579
-4.486095	Разделение	-0.04899579
-4.320955	Разделы	-0.04899579
-4.486095	Раздутое	-0.04899579
-4.048526	Различают	-0.04899579
-4.048526	Различные	-0.04899579
-4.320955	Разница	-0.04899576
-4.486095	Разновидность	-0.04899579
-4.486095	Разнообразие	-0.04899579
-4.486095	Разнообразные	-0.04899579
-4.486095	Разные	-0.04899579
-4.486095	Разомкнутые	-0.0489958
-4.486095	Разработаны	-0.04899578
-3.48555	Разработка	-0.06608023
-4.486095	Разработки	-0.04899578
-4.486095	Разработчиками	-0.04899579
-4.486095	Разработчики	-0.04899578
-4.486095	Разумным	-0.04899578
-4.486095	Ракетнокосмическая	-0.04899579
-4.486095	Ракетыносители	-0.04899578
-4.486095	Рамеева	-0.04899579
-4.486095	Рамсея	-0.04899579
-4.486095	Ранее	-0.04899579
-4.486095	Ранние	-0.0489958
-4.486095	Ранняя	-0.04899579
-4.486095	Раньше	-0.04899579
-4.486095	Рапапорт	-0.04899578
-4.486095	Раскрытие	-0.04899579
-3.773157	Распознавание	-0.1284607
-4.320955	Распределнная	-0.04899579
-4.486095	Распространенным	-0.04899579
-4.048526	Рассел	-0.04899583
-4.486095	Рассмотрим	-0.04899579
-4.320955	Растровая	-0.1856871
-4.486095	Растровый	-0.04899579
-4.486095	Расширения	-0.04899578
-4.200387	Рауса	-0.04899581
-4.486095	Рациональные	-0.04899579
-4.486095	Рациональный	-0.04899579
-4.320955	Реализация	-0.04899575
-4.486095	Реальная	-0.04899579
-4.320955	Региональный	-0.04899577
-4.200387	Регрессионное	-0.2637789
-4.486095	Регрессионный	-0.04899579
-4.486095	Регрессия	-0.04899578
-4.486095	Регулирование	-0.04899578
-4.486095	Регулятор	-0.04899579
-4.486095	Редукции	-0.04899578
-4.486095	Результативность	-0.04899578
-4.486095	Результатом	-0.04899579
-4.320955	Результаты	-0.04899576
-4.486095	Рей	-0.04899578
-4.486095	Рейтинг	-0.04899578
-4.486095	Рейтинги	-0.04899578
-4.486095	Ректификация	-0.04899578
-4.486095	Ректор	-0.04899578
-4.486095	Рекурсивные	-0.04899579
-4.486095	Релевантность	-0.04899579
-4.486095	Религия	-0.04899578
-4.486095	Реляционная	-0.04899578
-4.486095	Республика	-0.04899578
-4.486095	Республиканскими	-0.04899579
-4.486095	Ресурсы	-0.04899578
-4.486095	Рефал	-0.04899579
-4.486095	Решающее	-0.04899578
-4.320955	Решая	-0.04899576
-4.200387	Решение	-0.04899578
-4.486095	Ривест	-0.04899578
-4.486095	Рисование	-0.04899578
-4.486095	Рисунок	-0.04899579
-4.320955	Ричарда	-0.04899576
-4.486095	Роббинс	-0.04899579
-4.320955	Роберт	-0.04899577
-4.486095	Роберта	-0.04899578
-4.320955	Робот	-0.04899578
-4.486095	Робототехника	-0.04899579
-4.200387	Роботы	-0.0489958
-4.486095	Роботыпомощники	-0.04899579
-4.486095	Роджер	-0.04899578
-4.486095	Родины	-0.04899579
-4.486095	Роем	-0.04899578
-4.486095	Розе	-0.04899578
-4.200387	Роман	-0.04899579
-4.486095	Романе	-0.04899578
-4.486095	Романов	-0.04899579
-4.486095	Рональд	-0.04899579
-3.847083	России	-0.04899574
-4.486095	Российская	-0.04899579
-4.320955	Российский	-0.04899578
-3.773157	Российской	-0.2754444
-4.320955	Россия	-0.04899579
-4.486095	РоссияРусская	-0.04899578
-4.486095	Рубинштейн	-0.04899578
-4.486095	Ружников	-0.04899579
-4.320955	Руководство	-0.04899576
-4.486095	Румынии	-0.04899578
-4.486095	Руси	-0.04899578
-4.486095	Рэй	-0.04899578
-4.486095	Рэймонд	-0.04899579
-4.200387	Ряд	-0.04899579
-4.320955	Рязанов	-0.04899581
-2.790492	С	-0.0998776
-4.320955	САПР	-0.04899578
-3.420555	САУ	-0.04899577
-4.486095	СИИ	-0.04899579
-4.486095	СК	-0.04899579
-4.486095	СККеримов	-0.04899578
-4.486095	СН	-0.04899578
-4.320955	СНГ	-0.04899579
-4.320955	СО	-0.04899577
-4.486095	СППР	-0.04899579
-3.654878	СПб	-0.1391979
-3.48555	СССР	-0.04899574
-4.486095	СССРПервой	-0.04899579
-4.486095	СТАРДАРТИНФОРМ	-0.04899579
-4.200387	СУ	-0.04899579
-3.05498	СУБД	-0.08212101
-4.486095	СУБДНесмотря	-0.04899579
-4.486095	СФ	-0.04899578
-3.605968	США	-0.04899577
-4.486095	СШАДругие	-0.04899579
-4.486095	Сабельфельдом	-0.04899578
-4.320955	Савельев	-0.1856871
-4.486095	Савитч	-0.04899579
-4.486095	Сазерленд	-0.04899578
-4.486095	Саймона	-0.04899579
-4.486095	Сайт	-0.04899578
-4.320955	Сакробоско	-0.04899577
-4.486095	Сальгадо	-0.04899578
-4.320955	Сам	-0.04899574
-4.320955	Сама	-0.04899582
-4.486095	Самарский	-0.04899579
-4.320955	Само	-0.04899582
-4.486095	Самоучитель	-0.04899579
-4.320955	Самые	-0.04899581
-4.486095	Самый	-0.04899579
-4.486095	СанФранциско	-0.04899579
-4.486095	Сандлер	-0.04899579
-4.486095	СанктПетербург	-0.04899578
-4.486095	СанктПетербургский	-0.04899579
-4.486095	Сб	-0.04899578
-4.486095	Сборник	-0.04899579
-4.486095	Сварочное	-0.04899579
-4.486095	Сверхбольшая	-0.04899578
-4.486095	Сверхбольшие	-0.04899579
-4.486095	Свобода	-0.04899579
-4.486095	Свободное	-0.04899579
-4.320955	Свободный	-0.04899579
-4.486095	Своей	-0.04899579
-4.486095	Свойства	-0.04899579
-4.486095	Свойство	-0.04899578
-4.486095	Связующее	-0.04899579
-4.486095	Связь	-0.04899576
-4.486095	Сделав	-0.04899579
-4.486095	Себеста	-0.04899579
-4.486095	Севергин	-0.04899578
-4.486095	Сегментация	-0.04899579
-4.486095	Сегодня	-0.04899579
-4.486095	Сегодняшние	-0.04899579
-4.486095	Седенионы	-0.04899578
-4.486095	Сеймур	-0.04899578
-4.486095	Сейчас	-0.04899579
-4.486095	Секретная	-0.04899577
-4.486095	Селиверстов	-0.04899579
-4.486095	Селинджер	-0.04899579
-4.486095	Семантика	-0.04899579
-4.486095	Семантикой	-0.04899578
-4.486095	Семантический	-0.04899579
-4.486095	Семиотика	-0.04899579
-4.486095	Семн	-0.04899579
-4.486095	Семь	-0.04899579
-4.486095	Сенигов	-0.04899579
-4.486095	Сенсорная	-0.0489958
-4.486095	СентЭтьенн	-0.04899579
-4.486095	Сенько	-0.04899579
-4.486095	Сергеев	-0.04899579
-4.320955	Сергей	-0.04899579
-4.486095	Сергея	-0.04899578
-4.486095	Серия	-0.04899579
-4.486095	Сертификация	-0.04899579
-4.486095	Серый	-0.04899578
-4.486095	Сетевая	-0.04899579
-4.486095	Сети	-0.04899579
-4.486095	Сеть	-0.04899578
-4.486095	Си	-0.04899578
-4.486095	Сидоров	-0.04899579
-4.486095	Сильвестра	-0.04899578
-4.320955	Сильный	-0.1856871
-4.320955	СимволПлюс	-0.04899576
-4.486095	Символьное	-0.04899578
-4.320955	Символьный	-0.1856871
-4.486095	Синергетика	-0.04899578
-4.486095	Синицын	-0.0489958
-4.486095	Синтаксисом	-0.04899578
-4.486095	Синтез	-0.04899578
-4.486095	Сирии	-0.04899579
-3.710003	Система	-0.07934975
-4.320955	Системная	-0.04899577
-3.847083	Системное	-0.1432427
-4.486095	Системой	-0.04899579
-3.773157	Системы	-0.08386451
-4.486095	Ситуационный	-0.04899579
-4.486095	Ситуацию	-0.04899579
-4.486095	Сия	-0.04899578
-4.486095	Скайнет	-0.04899579
-4.486095	Скорость	-0.04899578
-4.486095	Следовательно	-0.04899579
-4.320955	Следует	-0.04899577
-4.320955	Следующие	-0.1856871
-4.486095	Следующий	-0.04899579
-4.486095	Следующим	-0.04899579
-4.486095	Словаре	-0.04899579
-4.486095	Словарь	-0.04899578
-3.710003	Слово	-0.0793497
-4.320955	Сложности	-0.04899575
-4.486095	Сложность	-0.04899578
-4.486095	СложностьХотя	-0.04899578
-4.486095	Слупецкий	-0.04899578
-4.486095	Случай	-0.04899579
-4.486095	Слюсаренко	-0.04899579
-3.209573	См	-0.9774936
-4.486095	Смирнов	-0.04899579
-4.486095	Смолин	-0.04899579
-4.486095	Сначала	-0.04899578
-4.320955	Снижение	-0.04899576
-4.486095	Снятся	-0.04899578
-4.320955	Со	-0.1856871
-4.320955	Собственно	-0.04899575
-4.486095	Сов	-0.04899579
-4.486095	Совет	-0.04899578
-4.486095	Совета	-0.04899578
-4.486095	Советов	-0.04899578
-4.486095	Советом	-0.04899579
-4.486095	Советская	-0.04899579
-4.320955	Советского	-0.1856871
-4.320955	Советское	-0.1856871
-4.486095	Советской	-0.04899579
-4.486095	Советском	-0.04899578
-4.486095	Совместные	-0.04899579
-4.486095	Совместный	-0.04899578
-4.486095	Совокупность	-0.04899579
-4.486095	Совокупный	-0.04899578
-4.200387	Современная	-0.04899575
-4.486095	Современное	-0.04899579
-4.200387	Современные	-0.04899579
-4.486095	Современный	-0.04899579
-3.48555	Согласно	-0.04899577
-4.486095	Соглашению	-0.04899579
-4.486095	Содержание	-0.04899579
-4.486095	Содружества	-0.04899578
-4.486095	Соединенные	-0.04899579
-4.486095	Соединнные	-0.04899579
-4.048526	Создание	-0.04899584
-4.486095	Созданием	-0.04899579
-4.486095	Создатель	-0.04899579
-4.486095	Соискателями	-0.04899578
-4.486095	Соколкин	-0.04899578
-4.486095	Соколова	-0.04899578
-4.486095	Соколовский	-0.04899579
-4.320955	Сократ	-0.04899576
-4.486095	Соломонофф	-0.04899578
-4.320955	Соммервилл	-0.0489958
-4.486095	Сообщения	-0.04899579
-4.200387	Соответственно	-0.04899578
-4.200387	Соответствующий	-0.1351903
-4.486095	Сопровождение	-0.04899579
-4.486095	Соссюром	-0.04899579
-4.486095	Состав	-0.04899579
-4.486095	Составитель	-0.0489958
-4.486095	Сохранение	-0.04899579
-4.486095	Социальная	-0.04899579
-4.486095	Социальнопсихологические	-0.04899579
-4.486095	Социальноэкономические	-0.04899579
-3.936228	Социальные	-0.4856275
-4.486095	Социальный	-0.04899578
-4.486095	Социология	-0.04899578
-4.486095	Союза	-0.04899579
-4.486095	Союзе	-0.04899577
-4.486095	Спафария	-0.04899579
-4.486095	Специалисты	-0.04899578
-4.486095	Специальная	-0.04899579
-4.200387	Список	-0.04899578
-4.320955	Способность	-0.1856871
-4.486095	Способы	-0.04899579
-4.200387	Справочник	-0.1351903
-4.486095	Справочники	-0.04899579
-4.486095	Сравнение	-0.04899578
-4.486095	Сравнительная	-0.04899579
-4.486095	Сразу	-0.04899579
-4.200387	Среди	-0.04899579
-4.486095	Среднего	-0.04899579
-4.486095	Средние	-0.04899579
-4.486095	Средний	-0.04899579
-4.320955	Средства	-0.04899581
-4.486095	Средствами	-0.04899579
-4.486095	Срль	-0.04899578
-4.486095	Срля	-0.04899579
-3.562013	Ссылки	-0.04899574
-4.320955	Стадии	-0.04899578
-4.486095	Стал	-0.04899579
-4.320955	Стандарт	-0.04899577
-4.486095	Стандартизация	-0.04899578
-4.486095	Стандартная	-0.04899579
-4.486095	Стандартные	-0.04899579
-4.486095	Стандартными	-0.04899579
-4.486095	Стандарты	-0.04899579
-4.486095	Станислава	-0.04899578
-4.320955	Становление	-0.04899574
-4.486095	Стартапы	-0.04899579
-4.486095	Статистика	-0.04899579
-4.320955	Статистические	-0.04899577
-4.486095	Статистическое	-0.04899578
-4.486095	Статическое	-0.04899578
-4.320955	Статьи	-0.04899575
-4.200387	Статья	-0.1351904
-4.486095	Стейкхолдер	-0.04899579
-4.486095	Стеклова	-0.04899578
-4.486095	Степанов	-0.04899579
-4.486095	Степень	-0.04899579
-4.320955	Стефанюка	-0.1351904
-4.486095	Стиральная	-0.04899578
-4.486095	Стоимость	-0.04899578
-4.486095	Стоит	-0.04899579
-4.486095	Столл	-0.04899579
-4.200387	Сторонники	-0.1351904
-4.320955	Стохастические	-0.1856871
-4.486095	Страницы	-0.04899579
-4.486095	Стратонович	-0.04899579
-4.486095	Страуструп	-0.04899579
-4.486095	Стресстестирование	-0.04899579
-4.486095	Строительная	-0.04899578
-4.486095	Строительное	-0.04899579
-4.486095	Строительномонтажные	-0.04899578
-4.320955	Строительные	-0.04899576
-4.200387	Строительный	-0.0489958
-4.320955	Строительство	-0.04899576
-3.847083	Структура	-0.04899577
-4.486095	Структурное	-0.04899578
-4.048526	Структуры	-0.1993424
-4.486095	Стрюкова	-0.04899578
-4.486095	Стэнфордская	-0.04899579
-4.486095	Стяжкин	-0.04899578
-4.486095	Субъективную	-0.04899579
-4.486095	Судьба	-0.04899579
-4.486095	Сумма	-0.04899579
-4.486095	Суть	-0.04899578
-4.320955	Существовало	-0.04899581
-4.486095	Существование	-0.04899578
-3.562013	Существует	-0.1181923
-3.936228	Существуют	-0.04899579
-4.486095	Существующие	-0.04899579
-4.486095	Сформировалась	-0.04899579
-4.486095	Схема	-0.04899579
-4.486095	Считается	-0.04899579
-4.486095	Счтная	-0.04899579
-4.486095	Сэвиджа	-0.04899578
-4.200387	Сюда	-0.04899581
-4.486095	Сюрреальные	-0.04899579
-3.48555	Т	-0.04899578
-4.320955	ТАУ	-0.04899578
-4.486095	ТЕМП	-0.04899579
-4.048526	ТЗ	-0.1993424
-4.486095	ТО	-0.04899579
-4.320955	ТП	-0.04899579
-4.486095	ТРИЗ	-0.04899579
-4.320955	ТТ	-0.04899573
-3.364033	Так	-0.07997684
-4.320955	Такая	-0.0489958
-3.605968	Также	-0.0489958
-3.605968	Такие	-0.07310688
-3.420555	Таким	-0.9627489
-4.486095	Такого	-0.04899578
-4.320955	Такое	-0.04899581
-3.936228	Такой	-0.09863558
-4.486095	Тактильная	-0.04899579
-4.486095	Тарталью	-0.04899579
-4.486095	Тасис	-0.04899578
-4.486095	Таунсенд	-0.04899579
-4.486095	Таха	-0.04899578
-4.486095	Ташкинов	-0.04899579
-4.486095	Тверски	-0.04899579
-4.486095	Те	-0.04899578
-4.486095	Тезаурус	-0.04899579
-4.486095	Тезис	-0.04899579
-4.486095	Тейлор	-0.04899579
-4.320955	Тейлора	-0.0489958
-4.486095	Текст	-0.04899578
-4.486095	Текстовая	-0.04899579
-4.486095	Текстовые	-0.04899578
-4.486095	Текстовый	-0.04899579
-4.486095	Текущая	-0.04899579
-4.486095	Текущее	-0.04899579
-4.486095	Телевизор	-0.04899579
-4.486095	Телеком	-0.04899579
-4.486095	Телекоммуникационные	-0.04899579
-4.486095	ТельАвив	-0.04899579
-3.936228	Тем	-0.164821
-4.486095	Тема	-0.04899579
-4.486095	Темами	-0.04899579
-4.486095	Темпус	-0.04899578
-4.486095	Теорема	-0.04899579
-4.486095	Теоретикомножественный	-0.04899579
-4.200387	Теоретическая	-0.1351904
-4.486095	Теоретически	-0.04899579
-4.486095	Теоретической	-0.04899579
-2.921633	Теория	-0.1588293
-4.486095	Теперь	-0.04899579
-4.486095	Теплообмен	-0.04899579
-4.486095	Теплоснабжение	-0.04899578
-4.320955	Терелянский	-0.0489958
-3.522101	Термин	-0.04899581
-4.486095	Терминатор	-0.04899578
-4.486095	Термины	-0.04899579
-4.486095	Тест	-0.04899578
-3.420555	Тестирование	-0.07934971
-4.486095	Тестировщики	-0.04899578
-4.320955	Тестовые	-0.1856871
-4.200387	Техника	-0.04899584
-4.486095	Технион	-0.04899579
-4.320955	Техническая	-0.04899579
-4.486095	Технические	-0.04899579
-3.936228	Технический	-0.230839
-4.486095	Техническим	-0.04899579
-4.486095	Технического	-0.04899578
-4.320955	Техническое	-0.04899579
-3.936228	Технологии	-0.04899577
-4.486095	Технологические	-0.04899579
-4.200387	Технологический	-0.04899579
-3.605968	Технология	-0.07310682
-4.486095	Технорабочий	-0.04899579
-4.486095	Течение	-0.04899578
-4.486095	Типичные	-0.04899578
-4.486095	Типичный	-0.04899579
-4.486095	Типичным	-0.04899579
-4.320955	Типы	-0.04899577
-4.486095	Тиражированная	-0.04899579
-4.486095	Тихого	-0.04899582
-4.048526	То	-0.1993424
-3.936228	Тогда	-0.09863558
-4.486095	Толкачев	-0.04899579
-4.320955	Толковом	-0.1856871
-4.320955	Толковый	-0.1856871
-4.200387	Только	-0.1351903
-4.048526	Том	-0.04899583
-4.200387	Томас	-0.1351903
-4.320955	Топология	-0.04899581
-4.486095	Точинский	-0.04899579
-4.486095	Традиционно	-0.04899579
-4.486095	Традиционное	-0.04899579
-4.486095	Трансдисциплинарные	-0.04899579
-4.486095	Трансдуктивное	-0.04899579
-4.320955	Транспорт	-0.04899579
-4.486095	Транспортные	-0.04899579
-4.486095	Трансцендентные	-0.04899579
-4.486095	Требования	-0.04899578
-4.486095	Трелкелда	-0.04899578
-4.486095	Третье	-0.04899578
-4.486095	Третьем	-0.04899578
-4.486095	Трехмерная	-0.04899579
-4.486095	Тригонометрия	-0.04899579
-4.486095	Труды	-0.04899579
-4.486095	Трусов	-0.04899578
-4.048526	Трхмерная	-0.1993423
-4.486095	Турчиным	-0.04899578
-4.486095	Тфлопс	-0.04899578
-4.486095	Тьюки	-0.04899579
-4.320955	Тьюринг	-0.04899581
-3.364033	Тьюринга	-0.07156003
-4.486095	Тьюринговскую	-0.04899579
-4.486095	Тьюрингом	-0.04899579
-4.486095	Тьюрингу	-0.04899576
-4.486095	Тюхтин	-0.04899579
-4.486095	Тяжелая	-0.04899579
-4.200387	У	-0.04899583
-4.320955	УДК	-0.04899577
-4.486095	УМО	-0.04899579
-4.486095	УО	-0.04899579
-4.486095	УРСС	-0.04899578
-4.486095	УССР	-0.04899578
-4.048526	УУ	-0.1993424
-4.486095	Уайтхед	-0.04899578
-4.320955	Увеличение	-0.04899577
-4.486095	Уемов	-0.04899579
-4.486095	Уже	-0.04899579
-4.486095	Узбекистане	-0.04899578
-4.486095	Уидом	-0.04899579
-4.486095	Уильямом	-0.04899578
-4.320955	Указанные	-0.04899577
-4.486095	Украине	-0.04899579
-4.486095	Украинцев	-0.04899578
-4.486095	Украни	-0.04899579
-4.486095	Улучшая	-0.04899578
-4.320955	Ульман	-0.04899583
-4.486095	Умножив	-0.04899579
-3.936228	Университет	-0.09863558
-4.200387	Университета	-0.04899579
-4.320955	Университете	-0.04899583
-4.486095	Университетом	-0.04899579
-4.320955	Уолтер	-0.04899577
-4.486095	Уомерзли	-0.04899578
-4.486095	Уорик	-0.04899579
-3.654878	Управление	-0.07587035
-4.486095	Управления	-0.04899578
-4.486095	Управляемость	-0.04899578
-4.486095	Управляемые	-0.04899578
-4.486095	Уравнение	-0.04899579
-4.486095	Уравнения	-0.04899579
-4.486095	Уральской	-0.04899578
-4.486095	Урбанистика	-0.04899579
-4.486095	УрбанистикаВ	-0.04899578
-3.847083	Уровень	-0.08995821
-4.486095	Уровнем	-0.04899578
-4.486095	Уровни	-0.04899579
-4.486095	Уровню	-0.04899579
-4.320955	Урсул	-0.0489958
-4.486095	Урсула	-0.04899579
-4.486095	Усиление	-0.04899579
-4.486095	Усилия	-0.04899579
-4.486095	Ускорение	-0.04899579
-4.486095	Условиями	-0.04899579
-4.486095	Усова	-0.04899578
-4.320955	Успенский	-0.04899576
-4.486095	Успешность	-0.04899578
-4.486095	Успешные	-0.04899579
-4.486095	Успешный	-0.04899579
-4.486095	Успешными	-0.04899579
-4.486095	Устойчивая	-0.04899579
-4.486095	Устойчивости	-0.04899579
-4.200387	Устойчивость	-0.0489958
-4.486095	Устройство	-0.04899579
-4.486095	Утрата	-0.04899578
-4.486095	Участники	-0.04899579
-4.320955	Учеб	-0.1856871
-4.320955	Учебник	-0.1351904
-4.320955	Учебное	-0.1856871
-4.486095	Учебные	-0.04899578
-4.200387	Учебный	-0.1351904
-4.486095	Учителей	-0.04899578
-4.486095	Учные	-0.04899579
-4.486095	Ушаков	-0.04899578
-4.320955	Ушакова	-0.04899583
-3.654878	Ф	-0.07310687
-4.486095	ФА	-0.04899579
-4.486095	ФИЗМАТГИЗ	-0.04899578
-4.486095	ФИЗМАТЛИТ	-0.04899579
-4.486095	ФРГ	-0.04899578
-4.486095	Фазис	-0.04899578
-4.320955	Факультет	-0.04899582
-4.486095	Факультеты	-0.04899578
-4.486095	Фасмера	-0.04899579
-4.486095	Фаулер	-0.04899579
-4.486095	Фдоров	-0.04899579
-4.486095	Федерации	-0.04899578
-4.486095	Фейн	-0.04899576
-4.486095	Фейна	-0.04899578
-4.486095	Фербер	-0.04899579
-4.486095	Фиайли	-0.04899579
-4.486095	Фигуры	-0.04899579
-4.320955	Физическая	-0.04899576
-4.486095	Физическое	-0.04899578
-4.486095	Физматгиз	-0.0489958
-4.320955	Физматлит	-0.04899575
-4.486095	Филиалы	-0.04899578
-4.486095	Филипа	-0.04899579
-4.486095	Филиппом	-0.04899578
-4.486095	Философ	-0.04899578
-3.710003	Философия	-0.1045183
-4.320955	Философские	-0.04899578
-4.486095	Философскому	-0.04899578
-4.486095	Философы	-0.04899578
-4.486095	Фильмы	-0.04899579
-4.486095	Фильтрация	-0.04899578
-4.486095	Фильтрование	-0.04899578
-4.486095	Финансовый	-0.04899578
-4.320955	Финансы	-0.04899576
-4.486095	Финетти	-0.04899582
-4.486095	Фишера	-0.04899578
-4.486095	Флах	-0.04899579
-4.486095	Флетчером	-0.04899578
-4.486095	Фолк	-0.04899578
-4.320955	Фон	-0.1856871
-4.486095	Фонд	-0.04899579
-4.486095	Формализация	-0.04899579
-4.486095	Формализм	-0.04899579
-4.486095	Формализованные	-0.04899579
-4.486095	Формальное	-0.04899578
-3.773157	Формальные	-0.6317555
-3.936228	Формирование	-0.09863558
-4.320955	Формулировка	-0.04899576
-4.486095	Формулируется	-0.04899579
-4.486095	Формы	-0.04899578
-4.486095	Форсайта	-0.04899578
-4.486095	Форум	-0.04899579
-4.486095	Фрагментированная	-0.04899579
-4.486095	Фрайберга	-0.04899578
-4.486095	Фрактал	-0.04899579
-4.320955	Фракталы	-0.04899581
-4.486095	Фрактальная	-0.04899579
-4.486095	Франции	-0.04899579
-4.320955	Франция	-0.04899579
-4.486095	Французский	-0.04899579
-4.486095	Фреге	-0.04899578
-4.486095	Френкеля	-0.04899579
-4.486095	Фролова	-0.04899579
-4.486095	Фрэнка	-0.04899578
-4.486095	Фулбрайт	-0.04899578
-4.486095	Фундаментальная	-0.04899579
-4.486095	Фундаментальность	-0.04899579
-4.486095	Фундаментальные	-0.04899579
-4.486095	Фундаментальными	-0.04899578
-3.847083	Функции	-0.1432427
-4.320955	Функциональная	-0.0489958
-4.486095	Функциональнодифференциальные	-0.04899579
-4.320955	Функциональное	-0.1856871
-4.486095	Функциональностоимостной	-0.04899579
-4.320955	Функциональные	-0.04899578
-4.486095	Функциональный	-0.04899579
-4.486095	Функцию	-0.04899579
-4.486095	Функция	-0.04899578
-4.320955	Х	-0.04899576
-4.486095	Хайнлайна	-0.04899579
-4.486095	Хант	-0.04899579
-4.486095	Характеризует	-0.04899579
-4.486095	Характерной	-0.04899578
-4.486095	Харин	-0.04899578
-4.486095	Харкевич	-0.04899578
-4.486095	Харкевичем	-0.04899578
-4.486095	Хауэлл	-0.04899575
-4.486095	Хемди	-0.04899579
-4.320955	Хемоинформатика	-0.04899579
-4.486095	Херн	-0.04899579
-4.486095	Химикотехнологический	-0.04899579
-3.936228	Химическая	-0.2962524
-4.486095	Химические	-0.04899579
-4.486095	Химия	-0.04899578
-4.200387	Хоара	-0.04899577
-4.486095	Холлерит	-0.04899578
-4.486095	Хопкрофт	-0.04899578
-4.486095	Хоппер	-0.04899579
-4.320955	Хорошев	-0.04899578
-3.847083	Хотя	-0.08995818
-4.486095	Хранилище	-0.04899579
-4.486095	Хранимая	-0.04899579
-4.486095	Хронология	-0.04899578
-4.486095	Хрущву	-0.04899579
-4.486095	Художественная	-0.04899578
-4.486095	Художественное	-0.04899578
-4.486095	Художник	-0.04899578
-4.486095	Хургин	-0.04899578
-4.486095	Хью	-0.04899578
-4.486095	ЦНИИТУ	-0.04899579
-4.486095	ЦНС	-0.04899578
-4.486095	Цветок	-0.04899579
-4.486095	Цезаря	-0.04899578
-4.048526	Цели	-0.1119856
-4.486095	Целые	-0.04899579
-4.200387	Цель	-0.04899581
-4.200387	Целью	-0.04899578
-4.048526	Центр	-0.04899583
-4.486095	Центра	-0.04899579
-4.048526	Централизованная	-0.1119857
-4.486095	Центрального	-0.04899578
-4.486095	Центрифугирование	-0.04899578
-4.486095	Центры	-0.04899579
-4.486095	Цермело	-0.04899578
-4.486095	Цетлин	-0.04899579
-4.486095	Цехановский	-0.04899579
-4.486095	Цикл	-0.04899579
-4.486095	Циклическая	-0.04899579
-4.486095	Цилиндрические	-0.04899579
-4.320955	Цифровое	-0.04899581
-3.936228	Ч	-0.04899581
-4.486095	Чайковский	-0.04899579
-4.320955	Чарлз	-0.04899579
-4.200387	Чарльз	-0.04899578
-4.486095	Чарльза	-0.04899579
-4.320955	Частичная	-0.04899577
-4.048526	Часто	-0.04899579
-4.486095	Частое	-0.04899579
-4.486095	Частотный	-0.04899578
-4.048526	Часть	-0.1119857
-4.320955	Чаще	-0.1856871
-4.486095	Чебышв	-0.04899579
-4.200387	Человек	-0.04899579
-4.486095	Человеческий	-0.04899578
-4.486095	Чем	-0.04899579
-4.486095	Через	-0.04899578
-4.486095	Чернавский	-0.04899579
-4.486095	Черная	-0.04899579
-4.320955	Черный	-0.04899577
-4.320955	Черняк	-0.04899577
-4.486095	Черча	-0.04899578
-4.486095	Четвртый	-0.04899579
-4.486095	Чехословакии	-0.04899578
-4.320955	Числа	-0.04899576
-4.486095	Числовая	-0.04899579
-4.486095	Чосер	-0.04899579
-4.486095	Чрный	-0.04899579
-4.486095	Чрч	-0.04899579
-4.048526	Чрча	-0.09863558
-3.936228	Что	-0.2101895
-4.486095	Чтобы	-0.04899579
-4.486095	Чудновского	-0.04899579
-4.486095	Чэмбэрлин	-0.04899578
-4.320955	Шамин	-0.1856871
-4.486095	Шахно	-0.04899579
-4.486095	Шахов	-0.04899578
-4.486095	Шварца	-0.04899578
-4.486095	Шевелев	-0.04899579
-4.486095	Шемакиным	-0.04899579
-4.486095	Шеннон	-0.04899579
-4.048526	Шеннона	-0.04899578
-4.486095	Шенфилд	-0.04899579
-4.320955	Шеррингтон	-0.04899575
-4.486095	Шеррингтона	-0.04899579
-4.200387	Шилов	-0.1993424
-4.486095	Шину	-0.0489958
-4.486095	Широкий	-0.04899579
-4.200387	Широко	-0.04899582
-4.486095	Широкое	-0.04899579
-4.486095	Шифрование	-0.04899579
-4.486095	Школа	-0.04899579
-4.486095	Шлезингер	-0.04899579
-4.486095	Шрдер	-0.04899578
-4.486095	Штайн	-0.04899578
-4.320955	Штаты	-0.04899576
-4.486095	Штейнбух	-0.04899579
-4.486095	Шумере	-0.04899579
-4.486095	Шэньчжэня	-0.04899578
-4.486095	Шюке	-0.04899579
-3.773157	Э	-0.04899578
-3.314027	ЭВМ	-0.1099533
-4.486095	ЭЛТдисплеи	-0.04899579
-4.320955	ЭП	-0.04899578
-4.486095	Эвальд	-0.04899578
-4.486095	Эволюционное	-0.04899578
-4.486095	Эволюция	-0.04899579
-4.486095	Эвристические	-0.04899579
-4.320955	Эдвард	-0.04899576
-4.320955	Эдгар	-0.04899579
-4.486095	Эдгара	-0.04899579
-4.486095	Эден	-0.04899578
-4.486095	Эдинбурга	-0.04899578
-4.486095	Эйкен	-0.04899578
-4.486095	Эйлер	-0.04899579
-4.486095	Эйлером	-0.04899579
-4.486095	Эквиваленты	-0.04899579
-4.486095	Экзамен	-0.04899579
-4.486095	Экземпляр	-0.04899579
-4.486095	Эккертом	-0.04899579
-4.200387	Экономика	-0.1351903
-4.486095	Экономикоматематическое	-0.04899578
-4.048526	Экономическая	-0.1119857
-4.486095	Экспериментальные	-0.04899579
-4.486095	Эксперт	-0.04899578
-4.486095	Экспертные	-0.0489958
-4.486095	Экстракции	-0.04899579
-4.486095	Экстракция	-0.04899578
-4.486095	Электронная	-0.04899579
-3.605968	Электронные	-0.5270204
-4.320955	Электротехника	-0.04899577
-4.486095	Электротехнический	-0.04899579
-4.486095	Элементарная	-0.04899579
-4.486095	Элементарное	-0.04899579
-3.936228	Элементы	-0.230839
-4.486095	Эллсберга	-0.04899578
-4.320955	Эмили	-0.1856871
-4.486095	Эмиль	-0.04899578
-4.486095	Эмиля	-0.04899579
-4.486095	Эмпирический	-0.04899579
-4.486095	Энгельса	-0.04899578
-4.486095	Энджел	-0.04899578
-4.320955	Эндрю	-0.04899579
-4.486095	Энергомашиностроение	-0.04899579
-4.486095	Энигмы	-0.04899579
-4.200387	Энциклопедии	-0.04899581
-4.200387	Энциклопедический	-0.2637789
-4.486095	Энциклопедическом	-0.04899579
-4.048526	Энциклопедия	-0.0489958
-4.486095	Эрбран	-0.04899578
-4.486095	Эрбрана	-0.04899579
-4.486095	Эрмитаже	-0.04899578
-4.200387	Эскизный	-0.2637789
-3.420555	Эта	-0.08145076
-4.486095	Этапы	-0.04899579
-3.936228	Эти	-0.04899576
-4.486095	Этика	-0.04899578
-4.486095	Этим	-0.04899578
-4.320955	Этимология	-0.04899579
-3.125434	Это	-0.1182342
-4.486095	Этому	-0.04899579
-3.710003	Этот	-0.04899579
-4.486095	Эту	-0.04899578
-4.486095	Эффективность	-0.04899579
-3.48555	Ю	-0.1790213
-4.320955	ЮНЕСКО	-0.04899575
-4.486095	Юдковски	-0.04899579
-4.486095	Юзабилититестирование	-0.04899579
-4.486095	Юрайт	-0.04899579
-4.486095	Юрьевич	-0.04899579
-3.605968	Я	-0.1505459
-4.486095	Является	-0.04899578
-3.847083	Язык	-0.1351904
-4.486095	Языки	-0.04899579
-4.486095	Яков	-0.04899578
-4.486095	Якопини	-0.04899579
-4.486095	Яндекс	-0.04899579
-4.486095	Яндекса	-0.04899579
-4.486095	Янь	-0.04899579
-4.486095	Японии	-0.04899578
-4.320955	Япония	-0.04899577
-4.486095	Ярким	-0.04899578
-4.486095	Ясоном	-0.04899579
-2.466685	а	-0.3100272
-4.486095	абак	-0.04899578
-4.200387	абака	-0.04899578
-4.486095	абаку	-0.04899578
-4.486095	абацистов	-0.04899579
-4.320955	абсолютно	-0.04899577
-4.486095	абсолютного	-0.04899579
-4.486095	абсолюту	-0.04899578
-4.486095	абстрагированием	-0.04899579
-4.320955	абстрагирования	-0.04899579
-4.320955	абстрагироваться	-0.04899576
-4.486095	абстрагируемых	-0.04899579
-4.486095	абстрагирующие	-0.04899579
-4.486095	абстрактная	-0.04899578
-4.486095	абстрактного	-0.04899579
-4.320955	абстрактной	-0.0489958
-4.486095	абстрактном	-0.04899579
-4.200387	абстрактные	-0.0489958
-4.486095	абстрактным	-0.04899578
-4.320955	абстрактными	-0.04899578
-4.320955	абстрактных	-0.04899583
-4.320955	абстракции	-0.0489958
-4.320955	абстракция	-0.04899581
-4.486095	аванпроект	-0.04899578
-4.486095	аварий	-0.04899579
-4.048526	августа	-0.04899579
-4.486095	авиационного	-0.04899578
-4.486095	авиационное	-0.04899579
-4.486095	автомагистрали	-0.04899579
-4.320955	автомат	-0.04899576
-4.486095	автоматам	-0.04899578
-4.486095	автоматами	-0.04899578
-4.320955	автоматах	-0.04899579
-4.486095	автоматгуманоид	-0.04899578
-3.291029	автоматизации	-0.09883594
-4.486095	автоматизацииРучное	-0.04899579
-4.486095	автоматизацию	-0.04899578
-4.200387	автоматизация	-0.0489958
-4.486095	автоматизирована	-0.04899579
-4.320955	автоматизированная	-0.04899576
-4.486095	автоматизированно	-0.04899579
-4.200387	автоматизированного	-0.1351904
-4.486095	автоматизированное	-0.04899579
-3.936228	автоматизированной	-0.4856277
-4.486095	автоматизированном	-0.04899579
-4.486095	автоматизированную	-0.04899579
-3.847083	автоматизированные	-0.2440022
-4.486095	автоматизированный	-0.04899579
-3.936228	автоматизированных	-0.2962524
-4.486095	автоматизировано	-0.04899579
-4.200387	автоматизировать	-0.04899581
-4.320955	автоматизирует	-0.04899577
-4.486095	автоматика	-0.04899578
-4.320955	автоматическая	-0.04899576
-3.936228	автоматически	-0.04899577
-4.048526	автоматические	-0.0489958
-4.486095	автоматическим	-0.04899579
-4.048526	автоматических	-0.1119857
-3.420555	автоматического	-0.3609176
-4.486095	автоматической	-0.04899578
-3.936228	автоматов	-0.04899579
-4.320955	автоматом	-0.04899575
-4.486095	автоматы	-0.04899579
-4.486095	автоматыи	-0.04899579
-4.486095	автомобилей	-0.04899578
-4.320955	автомобили	-0.04899579
-4.200387	автомобиль	-0.0489958
-4.486095	автомобильной	-0.04899579
-4.486095	автомобиля	-0.04899578
-4.486095	автомобилях	-0.04899578
-4.486095	автономией	-0.04899579
-4.486095	автономной	-0.04899579
-4.486095	автономные	-0.04899579
-4.486095	автономных	-0.04899578
-4.200387	автор	-0.04899584
-4.320955	автора	-0.0489958
-4.320955	авторитетных	-0.04899577
-4.200387	авторов	-0.04899578
-4.320955	автором	-0.04899583
-4.486095	авторского	-0.04899578
-4.320955	авторы	-0.04899577
-4.048526	агент	-0.04899582
-4.200387	агента	-0.0489958
-4.486095	агентам	-0.04899579
-4.486095	агентноориентированным	-0.04899579
-4.486095	агентным	-0.04899579
-4.320955	агентов	-0.04899575
-4.320955	агентом	-0.04899577
-4.486095	агентство	-0.04899578
-4.320955	агенту	-0.04899577
-4.486095	агенты	-0.04899578
-4.486095	агрегат	-0.04899578
-4.486095	агрегатов	-0.04899578
-4.200387	адаптации	-0.04899577
-4.486095	адаптацию	-0.04899579
-4.048526	адаптация	-0.1119857
-4.320955	адаптивного	-0.1856871
-4.486095	адаптивный	-0.04899578
-4.486095	адаптироваться	-0.04899578
-4.320955	аддитивности	-0.04899578
-4.486095	аддитивность	-0.04899579
-4.486095	адекватному	-0.04899578
-4.486095	адекватную	-0.04899578
-4.486095	адические	-0.04899579
-4.320955	административного	-0.1856871
-4.320955	администратор	-0.04899579
-4.486095	адресам	-0.04899579
-4.486095	адронный	-0.04899578
-4.320955	акад	-0.1856871
-4.486095	академией	-0.04899578
-4.048526	академии	-0.1993424
-4.320955	академик	-0.04899579
-4.486095	академика	-0.04899578
-4.486095	академиками	-0.04899579
-4.486095	академиком	-0.04899578
-4.486095	академических	-0.04899578
-4.486095	академической	-0.04899578
-4.486095	академическом	-0.04899578
-4.486095	аккредитации	-0.04899579
-4.486095	аккумулятора	-0.04899578
-3.773157	аксиом	-0.0838645
-4.486095	аксиомами	-0.04899579
-4.486095	аксиоматизации	-0.04899579
-3.936228	аксиоматики	-0.1648209
-4.486095	аксиоматикой	-0.04899578
-4.486095	аксиоматического	-0.04899579
-4.320955	аксиоматической	-0.0489958
-4.486095	аксиомой	-0.04899578
-4.486095	аксиомы	-0.04899579
-4.486095	аксодендритический	-0.04899578
-4.486095	акта	-0.04899579
-4.486095	активизации	-0.04899579
-3.847083	активно	-0.04899575
-4.486095	активности	-0.04899579
-4.486095	активным	-0.04899578
-4.486095	активов	-0.04899579
-4.486095	актов	-0.04899578
-4.486095	актом	-0.04899579
-4.486095	актуально	-0.04899579
-4.486095	актуальное	-0.04899579
-4.486095	актуальным	-0.04899578
-4.486095	актуарная	-0.04899579
-4.486095	акты	-0.04899578
-4.486095	акустическом	-0.04899579
-4.486095	акцент	-0.04899579
-4.486095	акцентирует	-0.04899579
-4.486095	акцентируют	-0.04899579
-4.320955	акции	-0.04899577
-4.200387	алгебр	-0.1119857
-3.936228	алгебра	-0.08386448
-4.486095	алгебраизации	-0.04899578
-4.486095	алгебраическая	-0.04899579
-4.486095	алгебраический	-0.04899579
-4.320955	алгебраических	-0.0489958
-4.486095	алгебраической	-0.04899579
-4.486095	алгебре	-0.04899578
-4.486095	алгебру	-0.04899579
-4.486095	алгоризма	-0.0489958
-4.486095	алгорим	-0.04899579
-4.486095	алгорисмик	-0.04899578
-4.486095	алгорисмиков	-0.04899578
-2.835159	алгоритм	-0.1138328
-4.486095	алгоритмГибкие	-0.04899579
-3.05498	алгоритма	-0.07911411
-4.486095	алгоритмаСтруктурная	-0.04899578
-4.486095	алгоритмаЦиклический	-0.04899579
-4.200387	алгоритмам	-0.04899578
-3.936228	алгоритмами	-0.04899577
-4.320955	алгоритмах	-0.04899573
-4.320955	алгоритме	-0.04899576
-4.320955	алгоритмизации	-0.04899576
-4.486095	алгоритмизация	-0.04899579
-4.486095	алгоритмика	-0.04899579
-4.200387	алгоритмически	-0.04899581
-4.486095	алгоритмические	-0.04899579
-4.320955	алгоритмического	-0.04899583
-4.320955	алгоритмической	-0.04899578
-2.941203	алгоритмов	-0.09327012
-4.048526	алгоритмом	-0.04899582
-4.048526	алгоритму	-0.0489958
-3.248394	алгоритмы	-0.08521125
-4.048526	алгорифм	-0.04899579
-4.486095	алгорифмы	-0.04899578
-4.486095	алфавита	-0.04899581
-4.486095	алфавите	-0.04899579
-4.486095	алфавитноцифровой	-0.04899578
-4.486095	алхимик	-0.04899578
-4.200387	альХорезми	-0.04899583
-4.320955	альджебр	-0.04899576
-4.320955	альтернатив	-0.04899576
-4.486095	альтернатива	-0.04899579
-4.486095	альтернативами	-0.04899579
-4.486095	альтернативная	-0.04899579
-4.486095	альтернативных	-0.04899576
-4.320955	альтернативы	-0.04899575
-4.320955	альфа	-0.04899575
-4.320955	альфатестирование	-0.04899579
-4.486095	альфатестирования	-0.04899579
-4.486095	амбициозная	-0.04899579
-4.486095	американский	-0.04899579
-4.486095	американских	-0.04899579
-4.486095	американской	-0.04899579
-4.486095	амплитуднофазовой	-0.04899579
-4.486095	амплитуды	-0.04899578
-3.068186	анализ	-0.07524997
-3.209573	анализа	-0.1724132
-4.486095	анализаи	-0.04899578
-4.486095	анализе	-0.04899578
-4.486095	анализировать	-0.04899579
-4.320955	анализирует	-0.04899579
-4.320955	анализируется	-0.04899577
-4.486095	анализируют	-0.04899579
-4.486095	анализируются	-0.04899579
-4.486095	анализирующими	-0.04899578
-4.200387	анализом	-0.04899582
-4.486095	анализу	-0.04899579
-4.486095	аналитик	-0.04899579
-4.320955	аналитика	-0.0489958
-4.486095	аналитики	-0.04899579
-4.200387	аналитиков	-0.04899581
-4.486095	аналитикосинтетической	-0.04899578
-4.486095	аналитически	-0.04899578
-4.320955	аналитические	-0.1856871
-4.486095	аналитический	-0.04899578
-4.486095	аналитических	-0.04899579
-4.320955	аналитической	-0.0489958
-4.486095	аналог	-0.04899578
-4.486095	аналога	-0.04899578
-4.486095	аналогии	-0.04899579
-4.486095	аналогична	-0.04899579
-4.486095	аналогично	-0.04899578
-4.486095	аналогичной	-0.04899579
-4.486095	аналоговые	-0.04899579
-4.486095	анафор	-0.04899578
-4.486095	анахронически	-0.04899579
-2.812252	англ	-0.107456
-3.847083	английский	-0.08995817
-4.320955	английским	-0.04899576
-4.200387	английского	-0.04899581
-4.048526	английском	-0.1993424
-4.486095	англонорманнской	-0.04899578
-4.486095	англоязычное	-0.04899578
-4.320955	англоязычные	-0.04899579
-4.486095	андеррайтинга	-0.04899579
-4.486095	андроидам	-0.04899578
-4.486095	андроидами	-0.04899579
-4.486095	андроидная	-0.04899579
-4.486095	андроиды	-0.04899578
-4.486095	анимации	-0.04899578
-4.486095	анимацию	-0.04899579
-4.320955	анимация	-0.04899575
-4.486095	аннотирование	-0.04899579
-4.486095	античные	-0.04899579
-4.486095	античными	-0.04899578
-4.486095	антропоморфной	-0.04899578
-4.320955	апельсина	-0.04899579
-4.486095	апельсинов	-0.04899579
-4.486095	апологетики	-0.04899579
-4.200387	аппарат	-0.04899576
-4.200387	аппарата	-0.0489958
-3.936228	аппаратного	-0.1648209
-4.320955	аппаратной	-0.04899579
-4.486095	аппаратнопрограммных	-0.04899578
-4.320955	аппаратным	-0.04899576
-4.486095	аппаратными	-0.04899579
-4.200387	аппаратных	-0.04899578
-4.320955	аппаратура	-0.04899581
-4.200387	аппараты	-0.04899576
-4.320955	аппроксимации	-0.0489958
-4.320955	априорной	-0.04899576
-4.486095	априорную	-0.04899579
-4.486095	априорные	-0.04899579
-4.486095	априорным	-0.04899578
-4.486095	апробацией	-0.04899579
-4.486095	арабские	-0.04899579
-4.200387	арабских	-0.2637789
-4.486095	арабского	-0.04899579
-4.486095	арабы	-0.04899579
-4.320955	аргумент	-0.04899581
-4.486095	аргументированного	-0.04899579
-4.486095	аргументирует	-0.04899579
-3.936228	аргументов	-0.04899576
-4.486095	аргументы	-0.04899578
-4.486095	аристотелевой	-0.04899578
-4.200387	арифметика	-0.04899578
-4.486095	арифметике	-0.04899579
-3.936228	арифметики	-0.0489958
-4.486095	арифметические	-0.04899578
-4.486095	арифметический	-0.04899579
-4.200387	арифметических	-0.1119856
-4.486095	арифмометр	-0.04899579
-4.486095	артефактов	-0.04899579
-4.486095	архив	-0.04899578
-4.486095	архиваторы	-0.04899578
-4.320955	архивы	-0.04899577
-4.200387	архитектора	-0.04899576
-4.486095	архитекторов	-0.04899578
-4.486095	архитектур	-0.04899578
-4.486095	архитектура	-0.04899582
-3.936228	архитектуре	-0.164821
-4.486095	архитектурное	-0.04899578
-4.486095	архитектурностроительное	-0.04899579
-4.486095	архитектурой	-0.04899576
-4.486095	архитектуру	-0.04899578
-3.936228	архитектуры	-0.04899579
-4.486095	асимптотику	-0.04899578
-4.486095	асимптотическая	-0.04899579
-4.486095	асимптотические	-0.04899579
-4.486095	асимптотической	-0.04899579
-4.486095	асимптотическом	-0.04899579
-4.486095	асимптотическую	-0.04899579
-4.486095	асимптотичной	-0.04899579
-4.320955	аспект	-0.0489958
-4.320955	аспектами	-0.04899579
-4.486095	аспектах	-0.04899578
-4.486095	аспекте	-0.04899578
-4.200387	аспектов	-0.0489958
-4.486095	аспекту	-0.0489958
-4.320955	аспекты	-0.04899577
-3.936228	аспирантов	-0.04899576
-4.486095	аспирантуре	-0.04899579
-4.486095	аспирантуру	-0.04899579
-4.486095	аспирантуры	-0.04899578
-4.320955	ассемблера	-0.04899576
-4.486095	ассистируя	-0.04899579
-4.486095	ассортимент	-0.04899578
-4.486095	ассоциацией	-0.04899579
-4.486095	ассоциациейИскусственные	-0.04899578
-4.486095	ассоциации	-0.04899578
-4.320955	ассоциация	-0.1856871
-4.486095	ассоциируется	-0.04899579
-4.486095	астроном	-0.04899578
-4.486095	астронома	-0.04899578
-4.486095	астрономических	-0.04899579
-4.486095	атаки	-0.04899578
-4.486095	атома	-0.04899579
-4.486095	атомами	-0.04899578
-4.486095	атомная	-0.04899578
-4.320955	атомной	-0.04899578
-4.486095	атрибут	-0.04899578
-4.486095	атрибутивная	-0.04899579
-4.486095	атрибутивной	-0.04899578
-4.320955	атрибутом	-0.04899579
-4.486095	атрибуты	-0.04899578
-4.486095	аттестации	-0.04899579
-4.486095	аудиальным	-0.04899578
-4.200387	аудио	-0.2637788
-4.486095	аудитории	-0.04899578
-4.486095	аффинное	-0.04899579
-4.486095	б	-0.04899579
-3.248394	баз	-0.7231213
-3.522101	база	-0.5648088
-4.320955	базам	-0.04899581
-3.773157	базами	-0.4423805
-4.200387	базах	-0.1993424
-4.048526	базе	-0.07310683
-4.486095	базироваться	-0.04899579
-4.320955	базируются	-0.04899578
-4.320955	базисным	-0.04899578
-4.486095	базовая	-0.04899579
-4.486095	базового	-0.04899579
-4.320955	базовые	-0.04899582
-4.486095	базовый	-0.04899579
-4.486095	базовым	-0.04899579
-4.200387	базовых	-0.04899579
-3.847083	базой	-0.1351904
-3.847083	базу	-0.1432427
-3.173938	базы	-0.7112259
-4.320955	байесовские	-0.0489958
-4.486095	байесовского	-0.04899579
-4.320955	байесовское	-0.1856871
-4.486095	байесовскому	-0.04899578
-4.486095	байткод	-0.04899579
-4.486095	байткодом	-0.04899579
-4.486095	бакалавриата	-0.04899579
-4.320955	баланс	-0.04899575
-4.486095	балансов	-0.04899579
-4.486095	баллов	-0.04899578
-4.486095	бананам	-0.04899579
-4.320955	бананы	-0.04899577
-4.486095	банк	-0.04899578
-4.486095	банков	-0.04899579
-4.486095	барьер	-0.04899579
-3.269189	без	-0.1165791
-4.486095	безбумажной	-0.04899579
-4.486095	безнадежном	-0.04899579
-4.486095	безопасно	-0.04899578
-3.847083	безопасности	-0.04899576
-3.847083	безопасность	-0.04899578
-4.486095	безопасную	-0.04899578
-4.486095	безотносительно	-0.04899578
-4.486095	безызбыточности	-0.04899578
-4.320955	белка	-0.04899576
-3.936228	белого	-0.4856276
-4.486095	бесед	-0.04899579
-4.486095	бесконечно	-0.04899578
-4.486095	бесконечнобольшой	-0.04899578
-4.486095	бесконечное	-0.04899579
-4.486095	бесконечном	-0.04899579
-4.486095	бесконечномалый	-0.04899578
-4.486095	бесконечные	-0.04899578
-4.486095	бесконечный	-0.04899579
-4.486095	бесперспективными	-0.04899579
-4.486095	бесплатно	-0.04899579
-4.320955	бесплатное	-0.04899577
-4.486095	беспоисковый	-0.04899579
-4.486095	бессмысленными	-0.04899578
-4.486095	бесформенная	-0.04899579
-4.486095	бесформенного	-0.04899578
-4.486095	бесформенное	-0.0489958
-4.486095	бетастадии	-0.04899579
-4.200387	бетатестирование	-0.04899577
-4.486095	бетатестированию	-0.04899579
-4.320955	бетатестирования	-0.04899579
-4.486095	бетонные	-0.04899579
-4.486095	библиотек	-0.04899578
-4.320955	библиотека	-0.04899577
-4.486095	библиотеками	-0.04899578
-4.486095	библиотеках	-0.04899579
-4.200387	библиотеки	-0.04899579
-4.486095	библиотечного	-0.04899578
-4.200387	бизнес	-0.04899579
-4.048526	бизнеса	-0.04899577
-4.486095	бизнесе	-0.04899579
-4.486095	бизнесом	-0.04899578
-4.486095	бизнесприложений	-0.04899579
-4.486095	бизнеспроцессов	-0.04899579
-4.486095	бизнеспроцессы	-0.04899579
-4.486095	бизнестехнологий	-0.04899579
-4.486095	бизнесшколе	-0.04899578
-4.486095	бикубическая	-0.04899578
-4.486095	билетов	-0.04899579
-4.486095	билинейная	-0.04899578
-4.486095	бинарную	-0.04899579
-4.320955	биографии	-0.0489958
-4.486095	биоинформатике	-0.04899578
-4.486095	биокомпьютерПоследний	-0.04899579
-4.200387	биологии	-0.0489958
-4.320955	биологическая	-0.04899576
-4.486095	биологически	-0.04899578
-4.486095	биологический	-0.04899579
-4.320955	биологическим	-0.04899578
-4.320955	биологических	-0.04899579
-4.486095	биологического	-0.04899579
-4.486095	биологической	-0.04899579
-4.486095	биологическому	-0.04899578
-4.486095	биомеханика	-0.04899578
-4.486095	биомеханики	-0.04899579
-4.486095	биотехнология	-0.04899578
-4.486095	биохимии	-0.04899578
-4.486095	бирже	-0.04899578
-4.486095	биржевого	-0.04899579
-4.486095	биржевых	-0.04899579
-4.486095	бистабильной	-0.04899579
-3.654878	благодаря	-0.04899582
-4.486095	благоприятны	-0.04899579
-4.486095	благосостояние	-0.04899578
-4.486095	бледнотиками	-0.04899578
-4.486095	ближайшего	-0.04899579
-4.486095	ближайшие	-0.04899579
-4.486095	ближайших	-0.04899578
-4.486095	ближе	-0.04899578
-4.486095	близкий	-0.04899578
-4.486095	близких	-0.04899579
-4.486095	близко	-0.04899578
-4.486095	близкого	-0.04899578
-4.320955	близкое	-0.04899579
-4.486095	близок	-0.04899579
-4.320955	блока	-0.04899578
-4.486095	блоками	-0.04899579
-4.486095	блоков	-0.04899579
-4.486095	блоксхема	-0.04899578
-4.486095	блоксхемами	-0.04899578
-4.200387	блоксхемы	-0.2637788
-4.486095	блюда	-0.04899578
-4.486095	богатой	-0.04899578
-4.486095	богословы	-0.04899579
-4.320955	боевой	-0.04899576
-4.486095	боевых	-0.04899578
-2.827389	более	-0.06871395
-4.486095	болиБолее	-0.04899579
-4.486095	боль	-0.04899579
-4.486095	большая	-0.04899579
-3.936228	больше	-0.04899576
-4.486095	большего	-0.04899579
-4.320955	большее	-0.04899581
-4.048526	большей	-0.1119857
-4.320955	большие	-0.04899577
-4.320955	больший	-0.0489958
-4.320955	большим	-0.04899578
-4.320955	большими	-0.0489958
-4.200387	большинства	-0.0489958
-4.486095	большинстве	-0.04899581
-4.200387	большинство	-0.04899577
-4.320955	больших	-0.04899576
-4.320955	большого	-0.1856871
-3.936228	большое	-0.09863558
-3.710003	большой	-0.07587034
-4.486095	большойПримерами	-0.04899579
-4.320955	большом	-0.04899577
-4.486095	большому	-0.04899578
-4.320955	большую	-0.04899577
-4.486095	бортового	-0.04899578
-4.486095	боты	-0.04899579
-4.486095	братьев	-0.04899578
-4.486095	бренд	-0.04899579
